#include "weights.h"

dtype const WEIGHTS[GAP_SHAPE][OUTPUT_SIZE] = {{ 1.13056898e-02, -1.11688329e-02,  3.31341401e-02,
        -7.73996040e-02,  8.58575851e-02,  4.75925803e-02,
         3.28981318e-02,  7.87643492e-02, -3.38019878e-02,
        -7.25868121e-02,  3.82653996e-02,  7.93733969e-02,
        -3.67326327e-02,  1.12828694e-01,  5.16551221e-03,
        -6.45940378e-02,  4.70981039e-02, -1.00978871e-03,
         3.18879969e-02, -6.88066557e-02, -5.32020144e-02,
         2.41730716e-02, -9.78046581e-02,  3.21693942e-02,
        -2.57995222e-02,  9.05498490e-02, -5.27942888e-02,
        -8.51902142e-02,  6.37485040e-03, -9.70389843e-02,
        -1.91648118e-02,  1.23900689e-01, -1.42992241e-03,
         9.19994712e-02,  9.07791480e-02, -2.42457536e-04,
        -8.53747651e-02, -9.96480882e-02, -1.17712341e-01,
         3.06167547e-02, -1.02268659e-01, -6.68511987e-02,
         2.24415455e-02, -7.30840117e-03, -1.20587960e-01,
        -1.90179106e-02, -7.52639100e-02,  6.09662235e-02,
         9.55240149e-03, -7.33469129e-02,  3.68491486e-02,
        -3.05008497e-02,  1.02869876e-01,  9.52885896e-02,
        -3.57483663e-02,  9.84166116e-02, -5.66624366e-02,
        -2.05480549e-02, -2.08761469e-02,  3.68022881e-02,
        -2.96809822e-02, -6.58920109e-02,  3.45662795e-02,
         1.47918016e-02,  8.93282145e-02, -1.11706823e-01,
         7.75286183e-02, -1.09237909e-01, -1.05816135e-02,
         5.10416441e-02,  1.09778859e-01, -9.22795013e-02,
        -7.79043511e-02,  1.00156248e-01, -7.57264346e-02,
        -5.56611978e-02, -4.91633266e-02, -1.14450879e-01,
        -1.15213186e-01, -6.46481141e-02, -8.78552347e-03,
        -2.33412124e-02, -7.70263076e-02, -4.89520049e-03,
        -1.06688492e-01,  1.03838995e-01,  6.49863631e-02,
         6.10250644e-02,  2.76322290e-02, -9.58584696e-02,
        -1.15354821e-01, -6.03878424e-02,  4.17265445e-02,
         7.30628520e-02,  2.17862651e-02,  7.68683180e-02,
         1.59619413e-02, -4.89510782e-02,  1.37842605e-02,
        -6.81567937e-02,  6.64558262e-02, -2.22694054e-02,
         3.77852656e-02,  1.97926015e-02, -3.35895568e-02,
        -1.09558761e-01, -5.99387176e-02,  1.08423315e-01,
         2.55651381e-02,  5.26872203e-02,  1.08392321e-01,
         1.40436487e-02, -6.22988082e-02,  3.81269604e-02,
        -6.63417280e-02, -2.99336258e-02,  8.36103186e-02,
        -7.54764080e-02, -2.94241565e-03,  4.33777533e-02,
        -6.53455406e-02,  7.69190341e-02, -6.37295917e-02,
        -2.53147073e-02, -2.86757741e-02, -6.82817549e-02,
         4.52375636e-02, -9.35214236e-02,  5.97808622e-02,
        -2.90539674e-02, -7.45786875e-02, -5.31571768e-02,
         9.26756263e-02, -1.49030956e-02,  8.61827210e-02,
         1.99219026e-02, -6.14401437e-02,  1.00613140e-01,
         8.16526264e-02, -9.31291729e-02,  5.97103164e-02,
        -1.92339476e-02,  9.76370648e-02,  8.58715847e-02,
         2.43851878e-02,  4.91504669e-02, -9.66558382e-02,
        -5.01632579e-02,  3.56140127e-03, -9.76006240e-02,
         6.67079119e-03,  1.57250836e-02, -2.69166213e-02,
        -2.34370641e-02, -9.04103816e-02,  6.87824115e-02,
        -3.47950347e-02, -5.84768541e-02, -6.56731948e-02,
        -5.89399822e-02,  1.19491868e-01, -4.00468186e-02,
         9.91428792e-02, -5.02647497e-02,  1.05877630e-01,
        -1.12612695e-02,  2.89570782e-02, -7.67946392e-02,
        -8.63238797e-02, -2.64068898e-02,  9.13411006e-02,
         1.16530955e-01,  7.61333257e-02, -4.97400090e-02,
         1.47308726e-02, -6.12048469e-02,  4.71735597e-02,
        -7.57102817e-02,  8.68994221e-02,  7.14692324e-02,
         4.47869711e-02,  1.06677793e-01,  7.88457394e-02,
        -3.92949544e-02,  1.92290414e-02, -2.09948402e-02,
         1.35494158e-01,  1.21680498e-02,  1.23294622e-01,
         1.23030454e-01, -1.58315580e-02, -3.36525366e-02,
        -7.90764168e-02,  1.67233050e-02,  1.14356093e-02,
        -3.76783051e-02,  1.12851918e-01, -4.64629307e-02,
         4.05325703e-02,  9.43217054e-02,  5.91431968e-02,
         1.04270920e-01, -1.45589104e-02,  3.85975884e-03,
         9.40924510e-02,  1.41853347e-01,  4.67951670e-02,
        -4.12645331e-03,  2.98297033e-02, -1.36471838e-02,
         8.95785689e-02,  1.26689062e-01,  1.51474953e-01,
         3.83309759e-02,  1.04895219e-01,  1.72438137e-02,
        -5.66397570e-02,  2.36887559e-02,  6.72683418e-02,
         6.03711233e-02, -1.90702211e-02,  7.41158202e-02,
         6.96627498e-02,  1.78289153e-02, -1.68625056e-03,
         1.28913075e-01,  6.49209991e-02,  1.56837851e-02,
         1.17679596e-01,  7.28872046e-02, -7.23855384e-03,
         4.17402806e-03,  7.20215961e-02,  8.98067579e-02,
         1.21437423e-01,  5.87806478e-02,  1.06365517e-01,
         9.13699865e-02, -5.52790388e-02,  3.99499834e-02,
         1.33623332e-01, -6.77627185e-03,  6.24442920e-02,
         8.88640508e-02, -2.23784265e-03,  3.54191326e-02,
         3.75015922e-02,  9.04381722e-02,  4.22261618e-02,
        -2.03502318e-03, -2.95199975e-02, -3.48201878e-02,
         2.02855505e-02,  1.09508419e-02,  1.70386843e-02,
         9.52946544e-02},
       {-9.40963626e-02, -8.73978157e-03, -4.23317067e-02,
         1.25737429e-01,  6.27368987e-02, -1.13640237e-03,
        -7.16514438e-02,  1.32324889e-01,  4.10768315e-02,
         7.88793266e-02,  1.13498745e-02, -2.75989305e-02,
        -5.22571653e-02,  2.68861223e-02, -8.62142071e-03,
         1.17344828e-02,  8.88173431e-02, -3.81701030e-02,
         1.31088849e-02, -3.70658264e-02, -2.40060445e-02,
         2.71800421e-02,  7.65099749e-02,  8.18768237e-03,
         4.62569743e-02,  7.37850741e-02,  7.56313130e-02,
        -7.95518011e-02,  6.78924769e-02,  3.99070457e-02,
         5.77778481e-02,  1.10518873e-01,  1.38933629e-01,
         9.08238590e-02, -4.89810519e-02, -8.55547115e-02,
         6.95164874e-02, -4.84698154e-02,  5.16530871e-02,
        -4.70778123e-02,  3.15120555e-02,  9.68350768e-02,
        -1.05211763e-02,  7.90462643e-02,  4.54312786e-02,
         4.60328013e-02, -8.78892392e-02,  1.22053176e-01,
         4.91295643e-02,  5.21159433e-02,  4.94773574e-02,
         5.34466878e-02, -2.62980033e-02,  2.90883444e-02,
        -1.59606710e-02,  7.35131875e-02, -6.07163049e-02,
        -8.64781067e-02, -5.09428009e-02, -5.54830953e-02,
         5.58302253e-02, -6.90992773e-02,  3.26319449e-02,
        -3.21060531e-02, -6.08261675e-02, -7.88221061e-02,
         8.82871971e-02, -4.90638316e-02,  4.45065973e-03,
        -2.54044048e-02, -6.60938695e-02, -7.01159909e-02,
         1.20753586e-01, -9.48362201e-02, -1.44519126e-02,
        -6.78939074e-02, -5.15000783e-02,  2.08762437e-02,
        -9.94552374e-02,  9.05104075e-03,  6.47938028e-02,
         1.16691412e-02, -7.81088471e-02,  9.07265469e-02,
        -1.77337062e-02,  8.85714516e-02, -4.96135652e-02,
         9.79684442e-02,  8.55676755e-02, -6.86951950e-02,
         3.98144424e-02,  1.11222476e-01, -4.83078361e-02,
         1.15371287e-01,  5.34242056e-02,  9.67977419e-02,
        -7.77923390e-02, -2.78980080e-02,  7.41018429e-02,
        -1.22860167e-02,  6.37897328e-02,  8.35693404e-02,
         1.25047080e-02,  8.68734792e-02, -6.19171150e-02,
        -8.30150321e-02, -4.15797979e-02, -6.93334937e-02,
         7.48054236e-02, -3.66423801e-02,  8.50507319e-02,
         1.02769032e-01, -5.19709811e-02,  6.10291250e-02,
         8.50054473e-02,  8.94104410e-03,  3.87770869e-02,
        -2.80645979e-03, -4.00981605e-02,  5.21668456e-02,
        -1.10661440e-01,  4.20339517e-02, -2.45717540e-02,
        -7.19453441e-03, -1.06511436e-01, -5.35619743e-02,
        -2.46679466e-02,  3.55514400e-02,  8.23632330e-02,
         1.20269008e-01, -5.11634648e-02,  1.30041232e-02,
         1.03286259e-01,  9.19191465e-02,  8.07618126e-02,
         5.96168302e-02,  2.12409440e-03,  7.50880539e-02,
         8.41662213e-02, -2.31954344e-02,  2.39391010e-02,
        -6.04677573e-02, -4.38455828e-02,  2.95318086e-02,
        -9.80013460e-02,  1.15676567e-01, -1.03126891e-01,
        -4.09504436e-02,  1.01243451e-01,  6.26171902e-02,
        -1.01468265e-01, -8.69612917e-02,  1.17871255e-01,
         4.00901139e-02, -9.59756449e-02, -3.44890058e-02,
        -5.84425293e-02, -7.93053210e-02, -5.58971800e-03,
         1.22572541e-01, -9.86153185e-02,  7.51327947e-02,
        -1.00420058e-01, -6.05762526e-02, -9.95898619e-04,
        -9.66534019e-02,  5.01633771e-02,  7.82157015e-03,
         5.98447286e-02,  1.06132720e-02, -4.63555232e-02,
         8.18162411e-03,  8.15985277e-02, -1.04639716e-01,
        -8.18769410e-02,  1.16429769e-01, -9.92811620e-02,
        -8.42375681e-02,  1.24674298e-01,  1.10604815e-01,
         7.41913468e-02, -1.91957634e-02, -1.24292132e-02,
         3.50463800e-02, -9.82262492e-02,  5.31241018e-03,
        -6.52568880e-03,  5.85444421e-02,  1.17327221e-01,
         1.04659470e-02,  5.99982729e-03,  1.66050233e-02,
         8.56255516e-02,  6.01868108e-02, -1.16343379e-01,
         7.14599248e-03,  7.13770837e-02, -1.04872353e-01,
        -8.41377005e-02, -4.43368442e-02, -1.12196773e-01,
         8.78968239e-02,  4.59933914e-02, -1.05372295e-01,
        -8.62766132e-02,  7.20701590e-02,  1.13449797e-01,
        -7.03136995e-02, -8.31691176e-03,  1.73793919e-02,
         6.33450598e-03, -8.73171315e-02,  8.59309658e-02,
        -1.92283764e-02, -3.60681638e-02, -9.20834169e-02,
        -6.60694614e-02,  6.75006434e-02, -5.52553907e-02,
         5.35617210e-02,  9.86382589e-02, -7.61907026e-02,
        -9.94456634e-02, -4.37316708e-02, -8.24501589e-02,
        -9.89848152e-02,  1.09062493e-01, -9.20728147e-02,
         1.16390735e-02,  2.26204675e-02, -4.52893861e-02,
        -1.93914101e-02,  1.06694609e-01, -1.14676215e-01,
        -2.06323396e-02,  8.39789882e-02, -4.57933135e-02,
         4.28499579e-02, -2.54075322e-03, -3.61963874e-04,
         8.57796222e-02, -4.95689847e-02,  1.05456144e-01,
         3.10522094e-02,  3.94777097e-02,  4.23920788e-02,
        -8.90377462e-02,  1.08835269e-02, -9.26364288e-02,
        -8.79881456e-02,  1.32474825e-01, -3.00745778e-02,
         9.68092233e-02, -6.06361106e-02,  8.42650384e-02,
         7.89211020e-02},
       {-8.61872807e-02,  2.84220614e-02,  8.83725360e-02,
        -5.63072227e-02,  7.52845854e-02,  3.66357155e-02,
        -2.71567162e-02,  4.96297441e-02, -7.38692284e-02,
         2.95623150e-02, -1.12941936e-01, -8.27047005e-02,
        -3.01267970e-02, -4.04106034e-03, -1.02252476e-01,
         1.02011994e-01,  9.09544453e-02,  1.14481919e-01,
         2.61317678e-02, -5.57993129e-02,  6.14398606e-02,
        -7.81330764e-02, -2.21025925e-02,  1.04113646e-01,
        -6.46182969e-02,  1.22035220e-02,  9.18911770e-03,
        -3.96367051e-02,  5.58251403e-02,  1.06635258e-01,
         2.74269246e-02, -5.76211326e-02, -2.97815651e-02,
         6.36211783e-03,  8.84670839e-02,  3.85963470e-02,
         1.18922740e-01,  5.03724925e-02, -3.40761729e-02,
        -5.16418144e-02, -7.05365837e-02, -6.45245612e-02,
         7.42292926e-02,  1.10213481e-01, -1.48199908e-02,
         4.63681966e-02, -2.85974666e-02,  9.75238830e-02,
         5.45372739e-02,  1.11792631e-01,  1.92844328e-02,
        -3.03208586e-02,  9.11639258e-02,  3.94049697e-02,
        -6.72876313e-02,  1.15414439e-02, -8.02169219e-02,
         6.65167272e-02, -5.84483892e-02,  2.21234076e-02,
        -4.58302861e-03,  1.26206260e-02,  5.71809486e-02,
         5.91887012e-02, -8.62186626e-02, -8.67951009e-03,
         3.13651673e-02, -8.86061862e-02,  7.80641735e-02,
         1.60021782e-02,  4.93443906e-02,  1.23262748e-01,
         1.47670535e-02, -1.82428099e-02, -6.64202794e-02,
         9.34427157e-02, -9.00981054e-02,  9.49321836e-02,
         8.63435119e-02, -5.76271154e-02, -9.46791545e-02,
         1.04859896e-01, -8.39870423e-02,  4.05802466e-02,
         7.79069215e-02,  1.14340782e-01,  7.92262331e-02,
         6.02298938e-02, -6.43562824e-02,  7.13333189e-02,
        -2.27823500e-02,  5.99970631e-02,  1.34746879e-01,
         1.13117360e-02,  3.95815894e-02,  4.45544943e-02,
         1.06325381e-01,  2.42252965e-02,  6.80866465e-02,
         2.82762162e-02,  5.45324981e-02,  4.82718274e-02,
         5.89946099e-02,  3.09143821e-03,  5.72054051e-02,
        -6.26745224e-02, -3.01373210e-02,  5.78651913e-02,
         4.92135286e-02,  6.66896626e-02, -4.40160967e-02,
        -4.15910855e-02,  4.90863547e-02, -8.25330243e-02,
         1.19830087e-01,  1.08413346e-01,  6.05350696e-02,
         1.79448612e-02, -6.04184158e-02,  6.64156899e-02,
        -7.51458341e-03,  1.07612424e-01, -5.64400293e-02,
         4.84851226e-02, -9.78473425e-02,  3.63445096e-02,
         9.62707475e-02, -5.61472401e-02,  9.87055004e-02,
         2.68026944e-02,  1.05732873e-01, -6.25516325e-02,
        -1.09428242e-02,  6.12739883e-02,  6.10263571e-02,
         1.25380838e-02,  1.16512530e-01,  5.11718690e-02,
         4.61765751e-02,  1.22484462e-02,  9.85899493e-02,
        -6.27859458e-02,  9.89158005e-02, -5.11117578e-02,
         8.85111019e-02,  9.71506387e-02,  5.44792786e-02,
         2.55188327e-02,  4.56961021e-02, -5.36387973e-02,
        -7.27369636e-02, -1.16141476e-02,  1.20347574e-01,
        -7.18435273e-02, -8.60731292e-04,  1.21112160e-01,
         2.04943381e-02, -5.15035763e-02, -3.72172520e-02,
         6.22570589e-02,  8.13918412e-02,  8.74354616e-02,
         6.14175722e-02,  3.92787792e-02,  8.43918025e-02,
         5.98568283e-02, -7.36512467e-02,  1.22063078e-01,
        -2.01070141e-02,  9.24542993e-02,  4.98494729e-02,
        -4.32769135e-02,  1.01281241e-01,  1.25479057e-01,
        -2.83094216e-02,  4.24516387e-02,  1.15216032e-01,
        -1.05165979e-02,  1.22503847e-01,  4.21839207e-02,
        -8.40886384e-02, -7.63287097e-02,  2.31177993e-02,
        -3.11689340e-02,  2.83012222e-02,  1.35155633e-01,
         1.89063251e-02,  1.05104685e-01, -9.05373320e-02,
         2.19828840e-02, -6.95853960e-03,  7.51654580e-02,
        -1.58545263e-02,  8.68926644e-02, -5.07547706e-02,
        -4.70016934e-02, -3.33664976e-02,  6.68971017e-02,
        -4.04731557e-02,  1.13567635e-02, -2.75466661e-03,
         5.62269986e-02,  8.41593742e-02,  3.44258407e-03,
         1.30691469e-01, -6.18668012e-02,  7.76031613e-02,
         5.48829548e-02, -4.14346345e-03,  6.69996738e-02,
         1.15372628e-01, -8.05608407e-02,  1.26559943e-01,
         1.27560824e-01, -5.42570278e-03, -8.17680806e-02,
         1.21183619e-01, -8.18593651e-02,  4.93824035e-02,
        -7.09315762e-02,  3.82562168e-02,  9.50078070e-02,
        -8.20603743e-02,  3.16049755e-02,  5.01995422e-02,
         1.01391055e-01,  1.26778200e-01, -7.13382289e-02,
         8.79048854e-02,  3.53715606e-02, -4.41071764e-02,
        -5.78250960e-02,  3.32847387e-02,  1.14682913e-01,
        -5.08354679e-02,  1.26022145e-01,  1.20272987e-01,
        -1.74543969e-02,  8.74624401e-02,  1.05291508e-01,
         1.34799583e-02,  2.62612458e-02,  9.19699296e-03,
         5.16862944e-02,  8.45436901e-02, -7.13258535e-02,
         1.04983307e-01,  8.27270672e-02,  1.97541136e-02,
        -6.76146150e-02,  1.39896106e-02, -1.92238614e-02,
         1.95967853e-02,  6.19806675e-03, -6.38605654e-02,
         1.08693853e-01},
       {-2.45286915e-02,  1.08231120e-01,  1.17746077e-01,
        -6.99502900e-02,  7.34067038e-02,  3.81091498e-02,
         7.49444067e-02,  4.41018492e-02, -3.40524912e-02,
         1.07131466e-01, -8.41691531e-03,  1.09535739e-01,
        -3.37127596e-02,  1.26829982e-01, -6.86785057e-02,
        -7.33482614e-02,  4.93863374e-02, -6.56572282e-02,
         2.66389325e-02, -7.47812241e-02,  3.25900503e-02,
        -5.15330248e-02, -1.45854084e-02,  7.83724561e-02,
         1.03556432e-01,  1.31670341e-01,  7.89658446e-03,
        -3.84406000e-03,  1.68895512e-03,  3.04379556e-02,
         7.17583448e-02, -1.40452636e-02, -1.43212676e-02,
         2.21604342e-03,  7.01222345e-02,  5.69228716e-02,
        -3.36935669e-02,  1.10072389e-01,  7.81516582e-02,
         3.60268839e-02, -2.89613828e-02,  5.26510216e-02,
        -8.92538205e-02, -7.44599998e-02, -9.17953998e-03,
         6.76942617e-02,  5.18666171e-02, -1.48677640e-02,
        -8.75776857e-02,  5.78392670e-02,  1.00252330e-01,
        -5.93374968e-02,  2.03325655e-02,  4.11456116e-02,
         8.70608240e-02,  5.12278154e-02,  6.46380559e-02,
        -7.41089210e-02, -1.82367098e-02,  1.72260031e-02,
         2.90705860e-02,  2.93876790e-02, -8.03919658e-02,
        -7.44835883e-02,  4.58492152e-02,  5.85957728e-02,
        -8.21042508e-02,  9.23001543e-02,  1.72404516e-02,
         4.66939285e-02, -5.29165827e-02,  8.25897977e-02,
        -5.68934204e-03, -8.47028270e-02, -8.87751803e-02,
        -8.55542868e-02,  6.55025244e-02, -3.03090811e-02,
        -3.28050740e-02, -5.61684035e-02, -3.13625000e-02,
        -5.60288318e-02, -7.37900957e-02, -2.05626637e-02,
        -7.03882426e-02,  1.00922413e-01,  9.65557992e-02,
        -1.28594423e-02,  6.47920296e-02,  9.05638486e-02,
        -4.25182059e-02, -8.12669843e-02, -3.32844034e-02,
         9.45631638e-02, -6.22704402e-02, -2.89929491e-02,
        -7.90841356e-02,  3.54991555e-02, -4.42664251e-02,
        -6.31017387e-02, -5.15071973e-02, -1.01128943e-01,
         1.08616754e-01,  4.32465710e-02, -8.16594139e-02,
         1.07657187e-01, -4.70036007e-02, -8.37341603e-03,
        -8.87846574e-02, -3.02067157e-02, -3.44156809e-02,
         4.39049304e-03, -2.12668553e-02, -1.02153249e-01,
         4.77942638e-02, -4.95416783e-02,  4.59130742e-02,
         6.07149377e-02, -4.47771139e-02, -6.61916435e-02,
         8.93292204e-02, -5.75715899e-02, -9.67005827e-03,
        -3.90648916e-02,  9.37000588e-02, -8.72154236e-02,
        -1.98437963e-02,  8.61336589e-02, -7.96814412e-02,
         8.56602639e-02,  8.80720988e-02,  1.47807365e-02,
         1.29556507e-01,  7.13189244e-02,  3.41108011e-04,
         1.27748221e-01,  1.31700382e-01,  2.82224715e-02,
         7.71842673e-02,  9.63090360e-02,  6.44872487e-02,
         1.11000255e-01, -2.46823244e-02, -5.69636524e-02,
         1.04091791e-02, -3.68357860e-02,  5.72448410e-02,
        -6.46500885e-02,  1.07906215e-01, -5.06746992e-02,
         6.74856752e-02,  7.44264796e-02,  4.91439663e-02,
         1.51152769e-03, -9.37036946e-02, -6.54080361e-02,
         6.81577995e-02,  8.38252530e-02,  1.02764415e-02,
         1.97861791e-02,  3.14313993e-02,  4.83571738e-02,
         3.66381109e-02, -6.89926073e-02,  1.36539713e-01,
         1.03122063e-01, -7.66356960e-02, -8.46674740e-02,
         4.32064831e-02,  1.22773699e-01,  1.25187814e-01,
         9.82261002e-02,  6.96140006e-02,  1.26656309e-01,
         3.01214214e-02, -5.64994216e-02,  1.35617167e-01,
        -6.66665733e-02,  1.53961210e-02,  4.34286073e-02,
        -4.40844558e-02,  4.65189926e-02, -2.81445235e-02,
         9.52022299e-02,  1.20033249e-01,  1.21969722e-01,
        -2.30012350e-02, -7.38564357e-02,  1.14159733e-01,
         1.08557850e-01,  1.07391573e-01,  3.32694277e-02,
        -5.45075573e-02, -8.74606147e-02,  5.82704507e-02,
         1.18648872e-01, -2.70843320e-02, -2.67871618e-02,
        -7.99486972e-03,  5.91996200e-02,  1.00924388e-01,
         4.33857378e-04, -1.10837910e-02,  4.78769206e-02,
         2.26480514e-03,  4.09691818e-02,  1.27468705e-01,
         7.72286132e-02,  9.11084097e-03,  2.85242237e-02,
         1.23661377e-01,  1.20757602e-01,  1.13433763e-01,
        -1.26278736e-02, -5.25241829e-02,  5.24329804e-02,
         1.06186308e-02, -7.89693836e-03,  1.25594750e-01,
        -5.43903336e-02, -2.77907308e-02,  1.30059477e-02,
        -6.55482486e-02,  4.33865897e-02,  4.11784947e-02,
         4.78811450e-02, -6.47365302e-02, -3.50995641e-03,
         8.05995613e-02,  2.33528055e-02, -4.62356582e-02,
        -3.23428959e-02,  9.97193530e-02,  6.04709312e-02,
         6.53986409e-02, -7.57962167e-02,  1.08576246e-01,
         8.45932290e-02, -6.42011985e-02,  9.36321765e-02,
        -4.04906496e-02,  1.04868129e-01, -3.67479883e-02,
        -7.84632936e-02, -7.99478814e-02,  4.66412976e-02,
         9.40205902e-02,  6.82670921e-02,  3.10053565e-02,
        -2.90217418e-02, -9.07927603e-02,  1.09916955e-01,
        -5.48181944e-02,  1.05783828e-01,  9.48430151e-02,
         8.38728100e-02},
       { 1.20475508e-01, -5.10754064e-02, -7.19779879e-02,
         3.36077763e-03, -4.04375605e-02, -1.00614496e-01,
        -4.84645478e-02,  9.15232897e-02, -1.14418473e-02,
        -4.83373702e-02,  6.15622699e-02,  8.45137760e-02,
        -2.58282181e-02, -8.17249864e-02,  1.25695253e-02,
        -9.70032066e-03,  6.39848188e-02,  1.00548424e-01,
        -2.17831116e-02, -4.40218337e-02,  1.03649899e-01,
         3.57947908e-02,  7.84490034e-02,  9.21976641e-02,
        -1.02990180e-01, -1.01054154e-01,  7.05213426e-03,
         9.35504287e-02,  1.17910311e-01,  1.70491114e-02,
         9.91319716e-02, -6.10456653e-02,  4.85098138e-02,
        -6.43968359e-02,  1.35179600e-02,  4.72689085e-02,
        -2.90773232e-02, -4.96597067e-02, -3.95700298e-02,
        -3.69603299e-02,  1.20375186e-01,  5.32932393e-02,
         7.07107410e-03,  9.22142938e-02,  1.03672564e-01,
         6.29838780e-02,  1.94748081e-02,  9.76362750e-02,
         7.15397522e-02, -8.55890065e-02,  2.40631383e-02,
         8.75915661e-02,  8.74623507e-02, -1.03447720e-01,
        -4.69925953e-03,  4.96104080e-03,  4.63304017e-03,
         1.03590615e-01,  1.35831395e-02, -6.51699975e-02,
        -9.49520767e-02, -7.82634318e-02, -5.36425821e-02,
        -9.66031700e-02, -2.05754470e-02, -8.05873498e-02,
         3.43824248e-03,  2.57265680e-02, -8.43046512e-03,
        -1.10018253e-01,  1.24995019e-02, -3.96051332e-02,
         1.15417533e-01, -6.93439320e-02, -7.64151588e-02,
        -3.03963176e-03, -1.02022223e-01, -6.29224814e-08,
         1.60307791e-02, -5.52975014e-02, -3.08521278e-02,
        -1.03626758e-01,  5.59667349e-02, -6.97654323e-05,
        -1.01357847e-01,  1.03712872e-01, -1.04621157e-01,
         3.51631418e-02,  9.55199078e-02, -1.83554497e-02,
         4.37431112e-02, -1.99122168e-02,  4.25400063e-02,
        -4.65382226e-02,  2.65270732e-02,  9.86617804e-02,
         3.22057940e-02, -7.25410357e-02, -9.45233852e-02,
        -1.28542474e-02, -7.12510273e-02,  4.20835353e-02,
        -1.05218450e-03, -8.32432434e-02,  3.44165824e-02,
        -1.02199912e-01,  9.71103534e-02,  1.12992115e-01,
        -2.96435319e-02, -6.71996847e-02,  6.86973240e-03,
         1.08497173e-01, -5.90185188e-02, -1.12889074e-01,
        -4.04129699e-02,  8.76024216e-02, -2.76817810e-02,
         4.33769189e-02, -2.76158638e-02,  4.12528850e-02,
        -3.86556387e-02, -2.78677717e-02, -3.55927460e-02,
        -8.35052505e-03, -1.29765328e-02, -6.17514290e-02,
        -1.12361848e-01,  2.89776232e-02,  5.63033298e-02,
         4.99921665e-02, -1.15011327e-01, -5.62341921e-02,
         9.56460461e-02,  5.71932234e-02,  9.58296582e-02,
        -1.82344653e-02, -6.09177724e-02,  8.04804862e-02,
        -2.58947443e-02, -3.39708626e-02,  7.05907717e-02,
         5.42046539e-02, -8.17795247e-02,  8.91417712e-02,
        -1.99909061e-02,  4.93856408e-02,  3.96219734e-03,
         6.05535991e-02,  1.02865987e-01,  2.55554598e-02,
         9.24905110e-03, -3.76495607e-02,  7.65202716e-02,
        -1.00433819e-01, -9.04762074e-02, -9.32184979e-02,
         5.91936596e-02,  1.73183605e-02, -5.77601306e-02,
        -4.70396206e-02, -3.52591835e-02, -6.65360466e-02,
         4.30394374e-02,  1.26115724e-01, -8.09696540e-02,
        -3.95315066e-02,  7.61761963e-02,  7.53154010e-02,
        -5.33223040e-02, -2.85477601e-02,  3.53871882e-02,
        -9.59823951e-02,  4.92730774e-02, -8.28798190e-02,
        -2.76251156e-02, -4.42135148e-02, -4.70574014e-02,
         3.69019359e-02, -4.34961990e-02,  1.21170118e-01,
         1.04225785e-01, -8.49099271e-03,  4.46765386e-02,
         7.83643275e-02, -2.39253715e-02,  1.07987583e-01,
        -2.12294981e-02,  1.08805247e-01, -8.81835446e-02,
         2.50345543e-02, -1.07615948e-01,  9.36855599e-02,
         3.53292413e-02,  1.00270584e-01, -4.41119671e-02,
         6.03813268e-02, -6.27845377e-02, -5.52264880e-03,
        -1.11217573e-02, -9.60503705e-03, -5.94162270e-02,
         5.03969304e-02,  3.98711674e-02,  3.50443535e-02,
         1.36234477e-01,  1.18475407e-01,  1.30808398e-01,
         7.22050574e-03,  8.05768892e-02,  9.38560665e-02,
        -1.60828233e-02,  1.41396359e-01, -1.30517008e-02,
         3.83561314e-03,  5.86342514e-02, -7.11201876e-02,
        -8.64963531e-02,  1.28137589e-01,  2.05441173e-02,
        -5.05735911e-02,  1.97215434e-02,  5.45532070e-02,
        -5.26099689e-02,  1.37736127e-01,  9.37902555e-02,
         1.18843116e-01,  2.70675272e-02,  5.61419129e-02,
         5.48359938e-03,  8.21129307e-02, -5.44457249e-02,
        -5.27791008e-02,  1.57808929e-04,  4.74447310e-02,
        -3.94456498e-02,  9.30244997e-02, -2.47038584e-02,
        -8.19099694e-02, -9.10087023e-03,  1.20818406e-01,
         2.54327469e-02,  1.58602037e-02,  1.10738270e-01,
         1.24284057e-02,  3.48066054e-02, -6.93962947e-02,
         2.98847016e-02,  9.01782364e-02, -6.85390458e-02,
         5.75609207e-02,  3.51320021e-02,  8.37430730e-02,
         9.99469161e-02,  6.09179325e-02,  8.48495215e-02,
        -4.43160161e-02},
       { 1.20744884e-01,  5.36692515e-02,  1.42899957e-02,
        -5.94070666e-02,  1.04816385e-01, -6.07775860e-02,
         6.28546765e-03,  1.07288398e-01, -7.21397484e-03,
         8.13558772e-02, -4.54478748e-02,  6.02878518e-02,
         1.45447925e-01,  1.56774037e-02, -6.69235438e-02,
        -9.22346953e-03,  3.90072167e-02,  8.16775933e-02,
         1.22636735e-01, -5.18715046e-02,  1.19109459e-01,
         3.58544812e-02,  1.40006065e-01,  2.28994619e-02,
         8.39764103e-02,  1.03093281e-01, -3.15655349e-03,
         9.01961923e-02,  1.12880632e-01,  4.66777124e-02,
         1.16143366e-02,  1.18605301e-01, -2.64862273e-02,
        -6.64474219e-02,  1.06506430e-01, -2.56626401e-02,
        -2.87368763e-02,  6.33722693e-02,  4.45695557e-02,
         1.39524460e-01, -8.79546721e-03,  2.71444786e-02,
         1.37647927e-01,  8.47451948e-03,  3.78979295e-02,
         1.28354490e-01, -6.83734119e-02,  6.68554828e-02,
        -7.61101022e-02, -5.15406020e-02,  3.25287171e-02,
         3.24037746e-02, -2.61437651e-02, -1.74963679e-02,
         9.80736804e-04,  4.33979742e-02, -9.00433399e-03,
        -9.22588333e-02, -2.59987097e-02, -5.61697073e-02,
         1.33336887e-01,  7.25265592e-02,  6.83428347e-02,
         2.40404624e-02, -8.66403505e-02,  1.01371957e-02,
        -1.23933051e-02,  5.29986694e-02,  2.74706073e-02,
        -3.31638008e-02,  9.75785553e-02,  5.11075743e-02,
         1.26441941e-01,  9.26994458e-02, -3.91628295e-02,
         9.83789563e-02,  1.88996997e-02,  5.88484257e-02,
         1.52302403e-02, -1.70491692e-02,  1.19363241e-01,
        -1.03022315e-01,  1.41453013e-01, -4.27772198e-03,
         4.46373746e-02, -1.70585513e-02,  9.07739922e-02,
         5.41209280e-02, -3.64124924e-02,  1.08240314e-01,
        -7.71252587e-02,  1.18918985e-01,  9.63135883e-02,
        -6.85839579e-02, -8.47806931e-02,  2.07180921e-02,
         3.29197268e-03, -6.27662390e-02, -6.22388497e-02,
        -2.25823242e-02,  3.06835994e-02, -3.45805362e-02,
         7.82194361e-02,  7.36533329e-02,  5.37000410e-03,
         5.12791472e-03, -3.70579585e-02, -4.54549119e-02,
        -8.00659657e-02, -1.03403278e-01,  4.55000885e-02,
        -4.51111905e-02,  1.41106872e-02,  4.28524474e-03,
        -9.66817811e-02, -2.96364501e-02, -2.33328845e-02,
        -6.82547241e-02, -9.26019028e-02,  8.01042169e-02,
         7.90915638e-02, -3.05885617e-02,  4.89411177e-03,
         4.92159352e-02, -8.29473287e-02,  9.45937559e-02,
         8.20719451e-02, -8.28391686e-03, -6.68188184e-02,
         1.06966101e-01, -5.93206100e-02, -5.87336952e-03,
        -9.97140557e-02,  4.33319956e-02,  8.88265073e-02,
         3.77049930e-02,  1.28798932e-01, -1.63424425e-02,
         2.91211121e-02,  1.07741550e-01,  1.00945704e-01,
         4.24214527e-02,  8.30089971e-02,  9.67734307e-02,
        -5.08998148e-02,  4.98227179e-02,  3.17837484e-02,
        -9.59383547e-02, -8.56074691e-02,  2.73506679e-02,
        -7.64225572e-02,  5.57655189e-03, -8.29165354e-02,
        -9.83200502e-03,  1.03667811e-01, -7.58764967e-02,
        -7.48043554e-03, -1.08571500e-02,  1.35106832e-01,
        -3.41318212e-02, -1.61434915e-02, -7.51531050e-02,
         2.91217081e-02,  1.19057177e-02, -9.92931128e-02,
        -1.14804460e-02,  1.09456912e-01, -1.87758412e-02,
        -6.04551546e-02,  1.01527825e-01, -3.41319735e-03,
        -5.08118644e-02,  5.61028048e-02,  6.25136122e-02,
        -2.70193145e-02,  9.24185850e-03,  8.55743811e-02,
         9.67628434e-02, -6.45329878e-02, -1.01403944e-01,
        -5.29547743e-02, -5.20395599e-02,  1.10177256e-01,
        -3.74162681e-02,  6.54189736e-02,  1.89711843e-02,
         5.53781306e-03,  6.93883449e-02, -3.32134254e-02,
         6.75255060e-02,  4.93071750e-02, -9.43350270e-02,
        -1.88586991e-02, -3.89593057e-02,  8.24526325e-02,
        -6.08061142e-02, -3.89176309e-02, -6.54214900e-03,
        -1.24237031e-01, -9.88788456e-02,  8.35863054e-02,
        -2.90457755e-02,  5.49430065e-02, -6.92983866e-02,
        -8.63109231e-02, -1.56874843e-02, -7.32349455e-02,
        -3.85280699e-02,  1.97639074e-02,  7.01581016e-02,
        -1.55353034e-02, -7.89106488e-02, -6.94488734e-02,
        -8.18806440e-02,  1.41776381e-02,  1.01334125e-01,
         1.10401526e-01, -1.13048861e-02, -2.70330030e-02,
        -3.37908790e-02,  6.81224391e-02,  9.61324126e-02,
         9.02192481e-03, -2.73426045e-02, -5.07272445e-02,
        -1.09657412e-02,  4.60418463e-02,  1.07102320e-01,
        -1.21337943e-01,  1.10485386e-02, -9.31292549e-02,
        -3.53276543e-02, -8.52169618e-02,  4.09180596e-02,
        -4.04699482e-02,  6.11376464e-02, -1.04611799e-01,
         9.38851014e-02, -8.70565102e-02, -2.17997539e-03,
        -6.73546270e-02,  3.29073370e-02,  8.37276652e-02,
         4.86874394e-02,  2.40199231e-02,  4.65817284e-03,
         4.24250402e-02, -5.64282052e-02, -6.40415475e-02,
         1.64868385e-02, -2.32821275e-02, -8.61007571e-02,
        -1.87228564e-02,  7.50743374e-02,  7.19993785e-02,
         7.99406543e-02},
       { 1.01601504e-01,  7.63363466e-02,  9.00653005e-02,
         4.67045195e-02, -9.51428711e-03, -3.86299752e-02,
         4.58840653e-02, -1.54377092e-02,  7.95471817e-02,
        -6.55165389e-02, -3.48865204e-02,  3.58212441e-02,
        -5.51717952e-02, -7.75354728e-02,  1.06827796e-01,
        -5.38935624e-02, -7.47790188e-02,  3.92017625e-02,
        -2.20497698e-02,  1.28832564e-01, -2.55071688e-02,
         1.24181099e-02, -5.71428500e-02,  9.65436548e-02,
         5.15938029e-02, -1.77057777e-02,  9.98338088e-02,
        -1.81163773e-02, -3.88632752e-02,  7.11628944e-02,
         1.61192976e-02,  4.84211519e-02,  7.65058100e-02,
        -6.95140362e-02, -9.36021358e-02, -5.38155437e-02,
        -6.95741773e-02,  9.09892246e-02,  1.28680333e-01,
         6.83772638e-02,  1.23074658e-01,  1.21278390e-01,
         1.33296356e-01,  1.42543718e-01, -1.10106887e-02,
         4.71338928e-02, -6.84666773e-03,  6.85406774e-02,
         9.98441949e-02,  1.21490374e-01,  8.24967772e-02,
         9.60651636e-02, -6.92133233e-03,  8.08014721e-02,
         1.18819594e-01,  1.07240394e-01, -2.15886664e-02,
         1.09869745e-02,  1.07455425e-01, -7.01297522e-02,
         1.86431129e-02,  2.19864734e-02, -1.57299340e-02,
        -9.58291963e-02,  1.09382279e-01, -7.40848342e-03,
         3.59600373e-02, -6.32647797e-02,  7.53749758e-02,
         8.41214359e-02,  6.02840558e-02,  5.76036088e-02,
        -6.09119385e-02, -4.64064106e-02, -5.52639458e-03,
        -6.11794088e-03, -7.17855468e-02, -5.91987967e-02,
        -9.56053510e-02,  1.15167931e-01, -7.42469057e-02,
         1.03087567e-01, -1.60798803e-02, -1.98480859e-03,
        -3.82707901e-02, -7.54975230e-02, -6.82770982e-02,
        -6.06649034e-02,  1.23393215e-01,  6.15981109e-02,
         2.99734827e-02, -2.25875676e-02,  5.38846031e-02,
        -8.52745175e-02, -5.76858222e-02,  1.04937017e-01,
         5.89814335e-02,  7.12150112e-02,  1.20686039e-01,
        -5.22710718e-02,  4.44114134e-02,  4.24446277e-02,
         8.60254765e-02, -1.62597671e-02,  1.66639835e-02,
         1.05026968e-01, -8.00261348e-02,  1.03242053e-02,
         2.66133677e-02,  3.92963365e-02,  1.03127427e-01,
         6.94752559e-02,  8.50611776e-02,  2.03403234e-02,
         5.58139160e-02,  7.45876208e-02, -8.25318769e-02,
         4.05105613e-02,  3.50337522e-03,  1.69236585e-02,
         4.18508276e-02,  1.06971301e-01,  9.07570496e-02,
         4.20385115e-02, -2.20923349e-02, -3.65818627e-02,
         2.87933294e-02,  3.01147792e-02, -1.07443102e-01,
        -1.98025927e-02,  5.87887578e-02,  3.61889526e-02,
        -2.80998088e-02,  8.63079652e-02,  5.71202226e-02,
        -6.01726957e-02, -4.66425456e-02,  7.84867536e-03,
        -2.33584847e-02, -6.16865084e-02, -2.40161065e-02,
        -4.38321456e-02, -1.03821950e-02, -2.37799548e-02,
         3.46023776e-02, -5.35110310e-02, -5.68972193e-02,
        -4.20264807e-03,  5.88677488e-02, -6.29616156e-02,
         1.09167427e-01, -8.27707201e-02, -1.03669204e-01,
        -1.13778740e-01, -2.83697117e-02, -6.73850477e-02,
         9.34072137e-02, -1.05885245e-01,  2.70930061e-04,
        -3.09290495e-02,  9.96288285e-02,  1.27710111e-03,
        -9.02527943e-02,  2.59707421e-02,  1.07773148e-01,
         9.82314423e-02, -1.01691633e-01, -2.44095661e-02,
        -9.18323621e-02, -6.88744634e-02,  3.94737348e-02,
         1.70873627e-02, -1.43806905e-01, -6.17283024e-02,
        -5.92714660e-02, -1.03783228e-01,  8.46156701e-02,
        -1.01422124e-01,  1.04086414e-01, -9.42125469e-02,
        -9.79334489e-03, -1.14135817e-01, -1.42055098e-03,
        -8.16090852e-02, -1.00076437e-01,  1.86997168e-02,
        -8.66709277e-02,  5.85985593e-02,  7.70860258e-03,
         7.61547089e-02, -2.31133159e-02, -6.14674054e-02,
        -1.10448450e-01, -9.99109149e-02,  6.45285770e-02,
         1.71328150e-02, -9.49781463e-02,  1.10239133e-01,
         3.78032252e-02,  5.31731322e-02, -7.04779755e-03,
         4.50868383e-02,  5.86417690e-02, -6.76712021e-02,
         1.20363543e-02, -2.71182768e-02,  5.09280860e-02,
         6.78615272e-02,  1.07890204e-01,  5.95931336e-03,
        -7.54618347e-02, -9.45279226e-02, -6.49282187e-02,
        -4.38794680e-02,  1.60973594e-02,  7.35351592e-02,
         1.03802055e-01, -8.74480382e-02, -7.74849346e-03,
         7.08674360e-03,  6.93147257e-02, -5.83238862e-02,
        -7.48295635e-02,  4.91321646e-02, -3.51690082e-03,
        -1.12229079e-01, -1.45089123e-02,  7.56384851e-03,
         5.24785034e-02,  5.22920080e-02, -1.85907092e-02,
         7.98754618e-02,  1.32959019e-02, -7.11963475e-02,
        -2.90511716e-02, -1.52442241e-02,  3.22546177e-02,
        -6.05940036e-02, -4.62518148e-02,  8.95854086e-02,
        -5.04103005e-02, -8.58823210e-02,  3.70750166e-02,
         1.72956809e-02,  5.43273687e-02, -7.29942694e-02,
        -8.48764777e-02, -8.58854428e-02,  7.65958577e-02,
        -6.50858786e-03, -1.00431107e-02,  5.97021841e-02,
        -9.50424448e-02,  6.65079802e-02,  1.18585177e-01,
        -3.21413949e-02},
       { 4.21177447e-02,  1.29843988e-02,  9.07588154e-02,
         2.28485540e-02, -8.77769962e-02,  6.63371831e-02,
        -9.22312289e-02,  1.82659517e-03, -9.74785723e-03,
         2.40597827e-03,  6.48162216e-02, -4.20354269e-02,
         3.89388092e-02, -3.56339552e-02, -8.41882899e-02,
         9.19444636e-02,  4.47577909e-02, -6.23666309e-02,
        -1.39634190e-02,  8.75156820e-02, -6.87779486e-02,
         7.05042630e-02, -8.02060589e-02, -9.48436260e-02,
         7.06629828e-02, -1.89554971e-02,  1.13694467e-01,
        -5.27126901e-02, -4.18286584e-03,  1.22284345e-01,
        -1.22622382e-02,  6.77292496e-02, -4.54214476e-02,
         1.00526676e-01, -6.31250590e-02, -6.24734685e-02,
        -6.16067164e-02, -1.87322404e-02, -2.97686923e-02,
         7.49860778e-02, -2.16242056e-02,  6.86817765e-02,
         1.28816783e-01, -6.35582432e-02, -3.38791832e-02,
        -7.90100396e-02,  8.46667439e-02,  9.04499143e-02,
         1.06556401e-01,  1.05191007e-01,  2.94103082e-02,
        -7.08406419e-02,  4.36372356e-03,  1.18881099e-01,
         1.09768212e-01,  7.33531713e-02,  8.43434781e-02,
         3.05297622e-03,  9.36743990e-03, -1.65394007e-03,
         2.98935007e-02,  2.28499714e-02,  5.16081788e-02,
         4.62457053e-02, -1.32363895e-02, -1.01763643e-02,
        -4.68801558e-02,  1.12508893e-01, -2.21552770e-03,
         7.61800706e-02,  6.98651299e-02, -2.34887023e-02,
         3.54953855e-02,  3.32860649e-02,  9.41318125e-02,
        -3.27780806e-02, -7.61760548e-02, -5.45490086e-02,
         6.11707866e-02,  6.38870373e-02, -6.37125298e-02,
         8.65595117e-02,  2.98252120e-03,  1.15381449e-01,
         2.52565239e-02, -7.95493424e-02, -2.06482820e-02,
         1.08034618e-01,  1.08515747e-01, -1.86505560e-02,
         4.32651900e-02,  1.07520618e-01, -2.85849851e-02,
         1.11722074e-01, -6.38112873e-02, -7.21294358e-02,
         1.28086790e-01,  9.40210521e-02,  8.54812041e-02,
         9.01429057e-02, -4.58433107e-02,  1.79067217e-02,
         1.20245665e-01,  8.68405253e-02,  1.11980751e-01,
         1.01192534e-01,  5.67659438e-02, -9.04522017e-02,
         2.66454089e-02, -8.21029320e-02,  6.76173568e-02,
         4.32229154e-02,  1.27505586e-01,  9.54851434e-02,
         3.35715413e-02,  8.21844786e-02,  2.60514449e-02,
        -4.02238108e-02, -7.83610195e-02, -6.92725480e-02,
         5.54008856e-02, -2.16378756e-02, -4.39687520e-02,
         1.07700318e-01, -4.13283035e-02,  2.44433172e-02,
        -6.01666383e-02,  3.40527389e-03,  6.90848082e-02,
         4.14961576e-02, -3.43932435e-02,  4.66247052e-02,
         2.41859406e-02, -3.19654308e-02,  2.55716238e-02,
         1.00280337e-01, -1.79016888e-02,  4.37023602e-02,
         1.05418675e-02, -2.74963910e-03,  5.32952510e-02,
         2.60144342e-02,  1.24617545e-02, -4.84854989e-02,
         1.19370684e-01,  5.69203459e-02, -5.44612529e-03,
        -3.83151248e-02, -6.40223101e-02,  1.05424285e-01,
         5.66550121e-02,  3.07578351e-02,  8.42698291e-02,
        -1.40895210e-02,  1.04967520e-01, -8.41836631e-03,
         3.86339799e-02,  2.19335817e-02,  4.02712467e-05,
         4.92909178e-02, -5.46394438e-02, -5.73953390e-02,
         1.03974521e-01,  1.62319820e-02,  2.07667742e-02,
         1.06589086e-01,  2.15911195e-02, -9.01310295e-02,
        -4.70914654e-02,  4.56562713e-02, -9.87921730e-02,
        -5.16685173e-02, -2.03781407e-02, -2.27722730e-02,
         3.13512571e-02, -3.92426960e-02, -9.57623962e-03,
        -1.65508725e-02,  1.23778783e-01,  4.84683998e-02,
         9.25112218e-02, -6.96813390e-02,  3.96690890e-02,
        -3.98415513e-03, -4.53592502e-02, -4.23408709e-02,
         9.01058465e-02,  2.12623756e-02,  2.65391660e-03,
        -7.58064240e-02,  3.31959799e-02, -5.80282100e-02,
        -7.69039765e-02,  6.20122626e-02, -4.42864932e-02,
        -3.51176336e-02,  1.67968087e-02, -6.68863207e-02,
        -4.97582816e-02,  1.02969460e-01,  1.11620359e-01,
        -4.19299863e-02, -9.72670242e-02,  3.56628112e-02,
        -2.60166340e-02, -4.52775881e-02, -9.37992632e-02,
         6.42608777e-02,  8.34630057e-02,  1.15158208e-01,
         5.27825579e-02,  2.46130116e-02, -3.31488699e-02,
        -7.85664096e-02,  8.82405862e-02, -2.69193668e-02,
        -7.17679262e-02, -7.02235326e-02, -1.17318667e-01,
        -1.14043579e-01,  9.00999680e-02, -4.45362143e-02,
         2.22794246e-02, -3.36435884e-02,  5.78684546e-03,
        -2.74037272e-02,  4.80321199e-02, -6.51842281e-02,
         8.87666047e-02,  2.58637108e-02, -1.19999133e-01,
        -1.94000024e-02, -5.52850775e-03, -4.90507707e-02,
        -1.21538928e-02,  1.11900263e-01, -2.08104961e-02,
        -7.78656155e-02, -6.65798634e-02,  2.67760991e-03,
        -8.34106356e-02,  4.11408916e-02, -9.41540897e-02,
        -1.78659260e-02, -1.12252804e-02, -7.22424686e-02,
        -9.19865817e-02, -1.02162331e-01,  5.13115525e-03,
        -2.02371571e-02,  6.79574087e-02, -1.66713502e-02,
         5.98667078e-02,  5.21036349e-02,  9.34991017e-02,
        -1.08851463e-01},
       { 1.28117189e-01, -7.17588514e-02,  6.74902648e-02,
         3.43822292e-03,  7.95518383e-02, -4.77466397e-02,
         6.49001449e-02,  5.49868979e-02,  8.60995054e-02,
         3.47199962e-02, -3.73263843e-02,  4.22182642e-02,
         1.51734073e-02, -4.40964513e-02,  1.17720298e-01,
         2.47150604e-02,  8.64406228e-02, -6.26884848e-02,
         1.10805161e-01, -6.79811835e-02,  1.06016003e-01,
        -4.11270298e-02,  5.11403084e-02,  5.06092645e-02,
        -6.41038939e-02,  5.04136682e-02,  1.00640438e-01,
         1.05317198e-01,  3.87208760e-02,  1.08656861e-01,
         1.28550932e-01,  1.43672302e-01, -2.71401219e-02,
        -5.62649369e-02,  1.01041004e-01,  1.09186761e-01,
         1.16054840e-01, -4.10790788e-03,  5.16277067e-02,
         5.67770451e-02, -3.89437415e-02,  1.40993968e-02,
        -4.92790751e-02,  1.20916823e-02,  1.19932008e-03,
        -4.60527316e-02, -6.98112547e-02, -4.39687073e-02,
        -3.86089506e-03,  5.25854453e-02, -3.43042612e-02,
        -2.07605828e-02,  8.64058658e-02,  1.42106146e-01,
         3.34114805e-02,  1.33733367e-04,  4.89707664e-02,
         6.87248260e-02,  5.82873151e-02,  9.74138454e-02,
         1.14990994e-01, -5.84465191e-02,  8.16188157e-02,
         7.66250044e-02,  8.85062888e-02,  7.97994435e-03,
        -7.08415508e-02, -3.07620093e-02,  1.19039267e-01,
        -6.75982237e-02,  5.14339358e-02,  9.60026830e-02,
        -6.16125464e-02, -7.36211538e-02,  2.85602082e-03,
         6.47702888e-02,  1.45138502e-01,  6.65969700e-02,
        -5.59912622e-03,  1.20720282e-01,  9.84971374e-02,
         1.26411259e-01,  6.75693452e-02,  7.04726726e-02,
         1.57454740e-02,  2.90667657e-02,  7.77364075e-02,
        -4.96385582e-02,  5.31581081e-02,  1.15013681e-01,
         1.64968092e-02, -2.19541620e-02,  2.37284154e-02,
        -8.33387375e-02,  8.22742358e-02, -1.57022476e-02,
        -8.78623724e-02,  7.04800412e-02,  3.06816418e-02,
        -9.40766409e-02,  5.30964062e-02,  1.09458424e-01,
        -6.76853433e-02,  3.11759359e-05,  9.46356952e-02,
        -8.61690268e-02,  6.97585270e-02, -3.59240547e-02,
         1.10177636e-01,  1.10817038e-01, -4.11577113e-02,
         2.45067719e-02,  1.08735703e-01, -7.18242899e-02,
        -1.97611824e-02,  4.16628718e-02,  6.87863007e-02,
         4.43890952e-02, -8.66700560e-02,  1.14571648e-02,
        -4.98047918e-02, -1.01184368e-01,  9.04137641e-03,
        -1.05008133e-01, -8.01327080e-02, -5.34110665e-02,
         1.89722404e-02, -7.76404664e-02,  1.17396973e-01,
        -1.60640143e-02, -9.72327217e-02,  5.79129271e-02,
         1.21403374e-01,  2.66490411e-02,  5.37507497e-02,
        -6.91074058e-02, -7.10591823e-02,  4.87682261e-02,
         3.84720154e-02,  3.56704853e-02, -1.15571776e-03,
        -1.01603838e-02, -7.48260692e-02, -6.24399111e-02,
         6.16505295e-02,  7.63535872e-02, -1.79798752e-02,
        -1.06916375e-01, -1.06316596e-01, -5.76206483e-02,
         3.28254476e-02,  9.57451537e-02,  2.57392935e-02,
         8.06813464e-02, -3.02297226e-03, -3.51045094e-02,
         4.18391414e-02,  5.09100184e-02, -2.66320426e-02,
         5.27535826e-02, -6.10845797e-02, -1.25647681e-02,
         9.15922821e-02, -6.23304322e-02,  8.18962418e-03,
         1.01071134e-01, -3.56673226e-02,  6.17063232e-02,
         9.33359191e-03,  9.17355046e-02, -7.04804286e-02,
         2.45512426e-02,  5.91296703e-02,  8.14788043e-02,
         2.11289283e-02,  3.86977121e-02, -3.15073691e-03,
        -4.58658040e-02, -5.70250116e-02,  2.77609024e-02,
        -1.00078501e-01, -2.13886052e-03, -9.99906063e-02,
         2.36398485e-02,  6.89752325e-02,  9.03947726e-02,
         6.23750351e-02,  1.06042661e-01, -6.71806633e-02,
        -3.05625312e-02, -3.37555669e-02, -7.53482729e-02,
         8.50172490e-02, -6.50097756e-03, -3.42168822e-03,
        -9.42473300e-03, -1.02222182e-01,  2.63540372e-02,
         5.40502146e-02, -5.82492054e-02, -7.91597459e-03,
         1.62964500e-02, -1.15054928e-01, -6.81123585e-02,
        -1.38983764e-02, -6.43649027e-02, -1.01538533e-02,
        -5.87773249e-02,  7.68804476e-02, -1.00224189e-01,
         1.85903125e-02, -5.73438518e-02, -3.63001116e-02,
         3.16513777e-02,  3.79411280e-02,  6.60243556e-02,
        -1.10268652e-01, -7.60808960e-02, -4.07193638e-02,
        -1.13283843e-01,  2.59049912e-03,  2.75417361e-02,
        -1.10378854e-01, -4.97582480e-02, -6.76654130e-02,
        -3.80149297e-02, -8.92117396e-02,  7.93104023e-02,
        -8.70503709e-02,  5.74100874e-02,  5.68921305e-02,
         1.06241688e-01, -1.18052542e-01, -1.02891162e-01,
        -8.59241411e-02,  7.17896922e-03, -3.06944121e-02,
        -1.01207778e-01, -6.14327751e-02, -7.69005418e-02,
         7.19036832e-02, -1.75624620e-02,  4.57822951e-03,
         2.21414659e-02, -1.35949878e-02, -8.70909542e-02,
         1.09653570e-01,  7.25733340e-02,  9.80260670e-02,
        -6.18098676e-02,  6.39447337e-03,  2.06189379e-02,
        -9.78948772e-02,  1.64012648e-02, -4.77357358e-02,
        -8.44224319e-02},
       { 4.39833924e-02,  6.75759614e-02, -1.01744626e-02,
         1.17709696e-01,  8.00409690e-02,  1.10500254e-01,
        -1.40496725e-02, -5.49417473e-02, -6.58367574e-02,
        -6.80421516e-02,  8.51931237e-03,  6.80143200e-03,
         5.01359291e-02,  1.10368997e-01, -4.43693101e-02,
         9.62964222e-02,  1.25987694e-01,  5.82009591e-02,
         4.26401608e-02, -6.30216449e-02, -5.64101152e-02,
         1.21298090e-01, -5.11549301e-02, -3.03728990e-02,
         4.24371250e-02, -3.46211754e-02,  3.69218774e-02,
         2.14467663e-02, -2.23822445e-02,  1.40516378e-04,
        -5.19851549e-03,  9.47238207e-02, -2.97640208e-02,
         3.98333929e-02,  2.26115435e-02,  8.07764977e-02,
        -6.68778047e-02,  4.07537892e-02,  7.90944472e-02,
         3.42444368e-02, -7.48084113e-02,  6.03591278e-02,
        -1.31841842e-02,  3.41238193e-02,  1.31571755e-01,
         5.35100065e-02,  2.23962925e-02,  1.14520900e-01,
        -6.82326080e-03, -7.33667286e-03, -1.14256339e-02,
         7.29620755e-02,  1.43391252e-01,  1.30677000e-01,
        -8.77026282e-03,  1.42903160e-02,  6.18401878e-02,
         1.30094454e-01,  1.34664863e-01,  3.53731960e-02,
        -9.07965843e-03,  1.30887955e-01, -2.38998085e-02,
         1.11194618e-01,  1.18834354e-01,  7.47810379e-02,
        -2.00771391e-02, -5.23181558e-02,  1.06709801e-01,
         1.24650232e-01, -9.56487954e-02, -1.77759174e-02,
         3.62857543e-02,  7.18142241e-02,  1.21005364e-02,
         6.18132912e-02, -4.42161560e-02,  5.15391380e-02,
         6.23611398e-02, -6.52685016e-02, -8.37308615e-02,
        -4.44751047e-02,  5.96453361e-02,  1.72453951e-02,
         2.49749952e-04,  1.49617434e-01, -6.10806234e-03,
         1.06542304e-01,  4.69302796e-02,  9.07409564e-02,
         1.08582877e-01,  1.06487453e-01, -1.17602088e-02,
         7.32795820e-02, -3.13472264e-02,  1.32105276e-01,
         6.33522421e-02,  6.13395832e-02,  9.67755988e-02,
        -3.24225575e-02,  4.27725958e-03,  1.19733118e-01,
         3.17361876e-02,  7.51030073e-02, -3.57301086e-02,
         5.76155558e-02,  4.93615195e-02, -3.54848392e-02,
        -8.16691369e-02,  4.91125621e-02, -4.25869264e-02,
         4.80353981e-02,  8.45632851e-02,  3.96233201e-02,
         6.79575428e-02,  1.22121535e-01,  1.14561900e-01,
         9.17558968e-02,  1.88337490e-02, -9.46572125e-02,
         1.23660639e-01,  1.13096580e-01,  1.23929925e-01,
         2.43792478e-02,  9.84800234e-02,  1.14917323e-01,
        -5.01669273e-02,  1.32408086e-02,  2.45227199e-02,
        -9.21904966e-02,  6.69286996e-02, -5.41392788e-02,
         4.17793579e-02, -8.45622718e-02,  7.94467926e-02,
        -7.98845142e-02,  1.31089166e-01,  8.59374925e-02,
        -7.41560608e-02,  8.11294839e-02,  6.85597956e-03,
         1.52736262e-04, -6.47702888e-02, -3.51912826e-02,
         4.17587012e-02, -8.71910378e-02, -8.76056477e-02,
         5.72281741e-02,  1.04638018e-01, -7.02517182e-02,
        -6.74522147e-02,  7.84080029e-02, -8.84882957e-02,
        -2.52363719e-02,  1.47259142e-02, -6.55876175e-02,
         4.35319282e-02,  1.02060080e-01, -3.84530760e-02,
        -3.65579501e-03,  7.46373534e-02, -8.86487216e-02,
        -6.92498013e-02, -5.07593974e-02, -6.35584518e-02,
         1.68018807e-02, -4.85721081e-02, -6.82402402e-02,
         7.06894994e-02,  6.26846030e-02,  2.64997222e-02,
         1.12772726e-01,  9.16968733e-02, -6.26891479e-02,
         3.04546542e-02, -5.12144603e-02,  6.52320310e-02,
         4.52890992e-02,  3.36661227e-02,  9.62987989e-02,
         1.72901759e-03,  2.95875985e-02,  1.54063236e-02,
         1.95873082e-02, -1.00393526e-01,  1.16859615e-01,
         5.94016025e-03, -5.90067804e-02,  1.14096440e-01,
         4.97292448e-03, -3.26147340e-02, -1.78777352e-02,
         5.36688790e-02,  6.89793900e-02,  1.59059558e-02,
        -1.53788626e-02,  7.16797560e-02, -9.51713324e-02,
        -3.74668166e-02,  4.79148747e-03, -2.32525468e-02,
         1.00656368e-01,  5.53439073e-02,  3.55100855e-02,
         3.63851152e-02, -8.29098076e-02,  5.43193743e-02,
         6.94485940e-03, -3.78791336e-03, -5.06567210e-02,
         6.96082115e-02,  9.72713903e-03, -4.78269123e-02,
        -4.07391526e-02, -1.22676380e-02,  3.74793336e-02,
         3.03831305e-02,  4.15545776e-02, -1.31257251e-01,
        -1.01250663e-01, -1.36156991e-01, -1.31121222e-02,
         5.23153022e-02, -6.09377958e-02, -5.95661998e-03,
         5.13344184e-02, -5.01012988e-02,  1.05102114e-01,
        -7.88622424e-02,  1.03090338e-01, -5.98683842e-02,
        -5.49619198e-02, -9.37806070e-02, -5.87890111e-02,
         1.23217274e-02,  6.18989132e-02, -7.62018263e-02,
        -4.40863930e-02,  1.66001637e-02,  9.36290026e-02,
        -2.35947184e-02, -3.66918109e-02, -3.91738489e-02,
        -3.13168466e-02, -1.06283464e-01, -8.20903108e-02,
        -5.10476790e-02, -1.07123226e-01, -7.41600469e-02,
        -7.06163049e-02,  2.38718577e-02, -8.91846642e-02,
         6.07735738e-02,  2.23434363e-02, -8.25203210e-02,
        -1.01152815e-01},
       { 1.18002377e-01, -2.50342283e-02,  4.34470363e-02,
         1.13032959e-01, -3.52856927e-02,  3.33900913e-04,
        -2.41385736e-02,  9.19781923e-02,  9.15784687e-02,
        -7.93851241e-02,  1.26652226e-01, -5.45108616e-02,
        -6.20222464e-02,  1.25000805e-01,  5.99013418e-02,
         9.82790291e-02, -3.38700600e-02,  9.55305845e-02,
        -4.45712060e-02,  1.25619277e-01, -1.31816333e-02,
        -8.99576992e-02, -5.00879847e-02, -6.50612488e-02,
         5.23519218e-02,  1.04338974e-01, -1.99840441e-02,
         9.83936936e-02,  1.33316815e-01, -9.29871053e-02,
        -5.80369756e-02,  8.25811252e-02,  7.94574469e-02,
         5.50212860e-02,  2.90112067e-02, -8.38399008e-02,
         2.82109622e-02, -3.55367772e-02,  8.22538696e-03,
        -4.31582890e-02,  1.25292361e-01,  2.15002578e-02,
        -3.65297608e-02,  1.39709935e-01,  1.72092486e-02,
         4.89776991e-02,  5.75300455e-02,  1.00286633e-01,
        -1.36620365e-02,  1.24920800e-01,  1.84441805e-02,
         9.44670290e-02,  2.85163559e-02, -5.12600504e-02,
        -3.00513599e-02,  7.69821415e-03, -1.41081596e-02,
         1.89159680e-02, -3.33979279e-02,  4.54515964e-02,
         1.31709561e-01, -5.84638268e-02,  5.31946719e-02,
         8.13745186e-02, -2.82127801e-02,  1.29508406e-01,
         1.43204719e-01,  9.45149958e-02,  1.24713391e-01,
         1.08056344e-01,  2.30514929e-02, -1.97621845e-02,
        -1.51659381e-02,  5.74819185e-02,  7.84088150e-02,
         1.01111434e-01,  3.05885412e-02,  4.54168208e-02,
        -4.81375977e-02, -4.18518372e-02,  2.43841726e-02,
         1.14539906e-01,  8.44336897e-02,  7.29837418e-02,
         1.38012722e-01,  2.98811235e-02,  1.73005313e-02,
        -5.67954034e-02,  1.28757387e-01,  8.27149898e-02,
         1.06244639e-01,  4.70335707e-02, -6.73111379e-02,
         3.27819958e-02,  1.02944553e-01,  2.80819330e-02,
        -7.63316900e-02,  5.30881621e-02, -4.61979285e-02,
         4.66693416e-02, -2.98693907e-02, -7.97695480e-03,
         1.19867422e-01,  1.35278478e-01,  3.82843353e-02,
        -4.50108387e-02,  1.81264635e-02,  3.05188540e-02,
         2.85539906e-02, -4.84414659e-02, -1.62445549e-02,
        -3.90470177e-02,  8.41472894e-02,  1.02275960e-01,
        -3.64874266e-02,  1.36826068e-01,  8.97256956e-02,
        -4.70310487e-02, -8.71321186e-02,  1.06008373e-01,
         2.14442760e-02,  7.75226057e-02,  1.06932752e-01,
         9.54617560e-02, -2.07645223e-02, -4.52923812e-02,
         1.32393837e-01,  8.35164264e-02, -7.84911662e-02,
         6.71709329e-02,  1.18978426e-01,  1.29705742e-02,
         9.83505920e-02,  5.96833564e-02, -8.12029839e-02,
        -7.46614188e-02,  1.35171339e-01,  7.48716220e-02,
         2.75545493e-02, -3.63774747e-02, -2.51255818e-02,
         4.67891134e-02, -9.11052674e-02,  5.98430149e-02,
         7.70687610e-02, -3.62522863e-02,  7.44604394e-02,
         1.11263366e-02,  9.73275825e-02, -7.79767781e-02,
        -9.43935961e-02,  9.45241526e-02,  3.91678326e-03,
         6.48077205e-02,  1.84227880e-02,  1.16632834e-01,
        -7.22752437e-02, -7.87803680e-02, -8.80881399e-02,
         9.32038203e-02,  6.36420771e-02, -9.11328290e-03,
         9.40916166e-02,  1.02577619e-02,  9.73809734e-02,
        -2.69876067e-02,  1.97028816e-02, -1.02836706e-01,
         3.85655602e-03, -5.73878847e-02,  7.72204623e-02,
         1.89342722e-02, -2.74682343e-02,  7.19396472e-02,
        -3.64046637e-03, -5.83435483e-02,  1.41734462e-02,
        -1.03880599e-01,  2.66103614e-02, -6.45996705e-02,
        -5.83809763e-02, -2.94054933e-02,  1.12487234e-01,
        -7.60193914e-02,  4.44513150e-02, -2.39117015e-02,
        -9.32833776e-02,  3.60184498e-02, -4.83363830e-02,
         1.05368175e-01, -4.06926945e-02, -8.68884027e-02,
         3.03095952e-03,  1.00978605e-01, -4.16572613e-04,
        -6.12788647e-02,  1.05046101e-01, -1.43383937e-02,
         1.01077460e-01, -2.16301791e-02, -4.39557293e-03,
        -5.64859845e-02,  2.05303896e-02, -6.07058369e-02,
         8.57613906e-02, -3.26971859e-02, -1.56127475e-02,
        -4.77117673e-02, -7.69251660e-02,  8.39295462e-02,
        -2.60199402e-02, -8.67368653e-02, -1.39958421e-02,
        -6.72549456e-02,  1.02548398e-01, -2.38199439e-02,
         1.05110884e-01,  1.07696466e-01,  7.67984465e-02,
         3.45788337e-02, -9.83452145e-03, -4.32043113e-02,
         7.78210610e-02,  6.65716082e-02, -8.61896109e-03,
         8.49203691e-02, -6.63184226e-02, -8.17632228e-02,
        -9.64764506e-03, -1.00083724e-01,  5.01663722e-02,
         4.66702208e-02, -9.00572240e-02, -1.04680769e-01,
        -8.30797479e-02, -5.25738932e-02,  5.39696999e-02,
        -3.50613296e-02,  3.34542617e-02,  2.84562516e-03,
         7.66009837e-02, -4.17862870e-02, -1.05803199e-02,
        -2.99638491e-02, -1.08036632e-02,  3.67653854e-02,
         1.17879421e-01,  1.00021601e-01, -1.28035974e-02,
         3.40132490e-02,  7.22234994e-02, -2.53849365e-02,
         7.57431937e-03, -4.32744026e-02, -3.28674889e-03,
        -1.03979297e-01},
       {-9.09920130e-03, -1.25422394e-02,  1.24553755e-01,
        -6.89416528e-02,  9.85208228e-02,  2.37866584e-02,
        -1.06916009e-02, -1.00592308e-01, -1.06362745e-01,
         8.16864148e-02,  1.72775295e-02, -3.21413055e-02,
         3.01467814e-02,  3.44807617e-02,  2.82522235e-02,
        -2.70221438e-02,  1.44004310e-02, -6.32972270e-02,
        -7.28027597e-02,  6.09115474e-02, -5.80094615e-03,
         7.52660707e-02,  3.16111445e-02,  2.41302066e-02,
        -1.02888413e-01, -1.06612600e-01, -6.75832853e-02,
        -1.81365293e-02, -2.05293042e-03,  1.55568589e-02,
        -1.58396014e-03, -1.96900051e-02, -3.90630215e-02,
         4.68350053e-02,  3.81501764e-02,  9.46921259e-02,
        -8.85705054e-02, -2.54552923e-02,  1.59266368e-02,
         1.12740636e-01, -9.73333046e-02,  1.36493174e-02,
        -8.26678425e-02,  7.63432160e-02, -8.54467452e-02,
         2.81807431e-03,  5.21908216e-02, -1.00874729e-01,
         1.33112706e-02,  9.70414579e-02, -8.95284191e-02,
        -2.75889598e-03,  9.43636447e-02, -8.28247741e-02,
         5.25824279e-02, -1.62213389e-02,  1.04931653e-01,
         7.27616716e-03,  7.39415139e-02,  6.47566319e-02,
         1.27350971e-01, -6.14167517e-03,  9.33945104e-02,
        -8.73005763e-02, -5.02982438e-02, -4.11059387e-04,
         1.76804970e-04,  9.39959511e-02,  5.98523915e-02,
         3.84083739e-03,  1.91731583e-02,  2.97054537e-02,
        -1.98313072e-02, -1.02042435e-02,  4.27466556e-02,
         1.12822931e-02, -8.97303596e-02,  9.54338834e-02,
         9.25702695e-03, -2.62179133e-02,  2.99869590e-02,
         1.07414043e-02,  7.34088942e-03, -8.87634605e-02,
         8.96056369e-02,  7.90476613e-03,  4.20031557e-03,
        -2.18085963e-02,  9.32898447e-02, -3.94454338e-02,
         9.47360322e-02, -6.28668591e-02, -6.57784343e-02,
         6.46651955e-03,  7.66870454e-02, -2.77246553e-02,
         1.11286595e-01,  2.61504799e-02,  7.32206851e-02,
         8.81681740e-02, -3.13928276e-02,  5.83270602e-02,
        -1.51206888e-02,  1.14581380e-02,  3.89288627e-02,
         1.16465069e-01, -8.16954374e-02,  5.64819425e-02,
         7.18236864e-02, -7.99598619e-02,  1.20246306e-01,
         1.27619341e-01, -1.04079813e-01,  7.60346428e-02,
         1.20910741e-02,  7.28209019e-02,  7.85027072e-02,
        -6.77006245e-02,  5.77712245e-02, -5.93974106e-02,
         3.38067971e-02, -2.84580868e-02, -2.98481435e-02,
        -1.00263834e-01, -6.95538074e-02,  7.19766095e-02,
         5.36904018e-03, -8.94267634e-02,  4.67517860e-02,
        -2.28964351e-02, -1.83827933e-02,  6.51129484e-02,
        -4.09174152e-02, -3.11102327e-02, -1.80436969e-02,
        -8.99804980e-02,  7.22401068e-02,  1.04350336e-01,
         1.25308290e-01,  8.53444561e-02, -6.11640364e-02,
        -5.99313644e-05, -7.37557048e-03, -9.91537422e-02,
         6.89352304e-03,  8.89281705e-02,  6.92400932e-02,
         3.29476148e-02,  7.52357021e-02,  7.73262084e-02,
         7.22082928e-02, -5.05727157e-02,  5.08455839e-03,
        -3.09948791e-02,  1.07320882e-01, -3.43386643e-02,
        -1.12662196e-01,  1.07854307e-01,  5.91357015e-02,
        -4.24747542e-02,  1.70383304e-02, -9.36992615e-02,
        -4.17400822e-02, -4.95878868e-02, -8.09165277e-03,
         6.22401312e-02,  9.89609957e-02, -6.37216866e-02,
        -6.01322725e-02, -5.55752255e-02, -5.88337816e-02,
         2.05145795e-02,  9.16799754e-02,  9.95655134e-02,
        -5.33104800e-02,  4.41666655e-02, -8.72156397e-02,
         8.80432576e-02,  1.18061267e-01,  5.15374951e-02,
        -2.71640606e-02,  1.01800626e-02, -5.51583841e-02,
        -5.51594645e-02,  4.24034111e-02,  1.00070693e-01,
         4.78129387e-02, -7.50178993e-02, -4.36130464e-02,
         3.01805753e-02,  1.00888744e-01,  1.06047980e-01,
         7.44898170e-02,  3.35571542e-02, -3.19452360e-02,
        -8.50694999e-02, -3.76190171e-02, -1.45928115e-02,
         1.16148263e-01,  9.52233002e-03,  9.85896736e-02,
         6.56355098e-02, -5.17429709e-02,  1.30685130e-02,
        -4.88117803e-03,  8.19800124e-02,  1.32985935e-01,
        -1.58500264e-03, -1.51416259e-02, -4.89830337e-02,
         5.40819801e-02, -4.74168323e-02,  2.58518774e-02,
        -4.83325589e-03,  1.17535636e-01, -5.65617196e-02,
        -5.74485250e-02,  2.69190725e-02,  4.30248631e-03,
         1.07464857e-01,  1.08400613e-01,  3.04063112e-02,
         8.67757425e-02,  1.33455079e-02, -3.61067839e-02,
        -8.40163156e-02,  6.63152039e-02,  8.06353390e-02,
        -1.43957222e-02, -3.51248160e-02,  5.07408679e-02,
         6.57143071e-02,  1.41165957e-01,  1.15865499e-01,
         1.47258610e-01, -3.76135260e-02, -5.22390455e-02,
        -1.01383962e-02,  4.10744660e-02,  1.00762628e-01,
         2.67707203e-02, -4.99910191e-02,  5.72160892e-02,
        -1.69338435e-02,  5.91415912e-02, -6.90558702e-02,
         1.41281247e-01,  1.05148323e-01,  7.10888207e-02,
         1.10244073e-01,  4.40664142e-02,  7.85037279e-02,
         1.23559356e-01,  1.27811998e-01,  1.21976309e-01,
         1.12024009e-01},
       {-2.88891923e-02, -8.29232484e-02,  8.22804272e-02,
        -2.00496335e-02,  9.11235437e-03,  1.38263077e-01,
        -9.57727954e-02, -3.97392549e-02,  1.10766023e-01,
        -5.16999094e-03, -1.49658956e-02,  5.32213338e-02,
        -2.07400089e-03, -4.06200998e-02,  1.06512547e-01,
         7.52664916e-03,  5.67581207e-02,  1.16743565e-01,
        -5.80519484e-03,  5.53131057e-03,  6.60063466e-03,
         2.67258249e-02, -8.92723724e-03,  3.31290513e-02,
         6.01586886e-02, -6.25329688e-02,  8.62128809e-02,
         1.32779598e-01,  7.57262185e-02, -4.45284555e-03,
         1.31379426e-01, -8.10802132e-02,  1.24131836e-01,
         3.21091861e-02,  6.94997311e-02,  1.15348510e-01,
         1.19719412e-02,  2.95565426e-02, -7.97580183e-02,
         7.79506490e-02,  7.23375008e-02, -5.26984371e-02,
         1.29594579e-01,  1.30871326e-01, -1.69913117e-02,
         5.88440299e-02,  1.17922269e-01,  1.04687154e-01,
         2.88710613e-02, -7.11895898e-02,  2.48373915e-02,
        -1.75464922e-03, -1.11155054e-02,  9.73602310e-02,
        -2.03915462e-02,  9.35142115e-02,  7.17636049e-02,
         2.70801838e-02,  7.84940496e-02,  7.08066672e-02,
         2.37607043e-02, -1.33723230e-03, -2.24736370e-02,
         2.48358585e-02, -3.46970782e-02, -1.25398664e-02,
         9.81941521e-02, -6.16316358e-03,  1.68300401e-02,
         1.25778332e-01, -9.15891826e-02, -7.82095268e-02,
        -8.17711838e-03, -2.17523612e-02,  1.15496151e-01,
         1.04156949e-01,  1.08733155e-01,  1.21887684e-01,
        -7.90536404e-02,  1.26616076e-01, -4.41269577e-02,
         6.36006445e-02,  7.95470849e-02,  3.13452668e-02,
         1.01500213e-01, -1.73099395e-02,  8.32773671e-02,
         5.64864092e-02,  1.20667256e-01, -2.45556664e-02,
         4.04480174e-02,  4.86068288e-03,  1.97142269e-02,
         4.91160750e-02, -4.09463886e-03, -2.56283917e-02,
        -6.34650216e-02,  2.47120997e-03,  1.32414967e-01,
        -8.12774152e-02,  5.63733615e-02,  3.07148136e-02,
         4.83355112e-02,  1.57873929e-02,  1.06462076e-01,
         9.15175769e-03,  8.25380255e-03, -4.75590527e-02,
         5.51558957e-02,  1.50650162e-02, -7.74044469e-02,
        -3.92913558e-02, -8.11404288e-02, -4.07278500e-02,
        -2.36491486e-02, -3.89414541e-02,  9.58088860e-02,
         7.54280239e-02,  1.34690329e-01, -1.69248655e-02,
         2.57620830e-02, -3.38351987e-02,  3.56937782e-03,
         5.34582091e-03,  6.15990050e-02,  1.13845631e-01,
         9.13797021e-02, -1.29152387e-02,  1.37418255e-01,
        -6.25629127e-02,  7.77652487e-02,  8.65389258e-02,
         3.69819403e-02, -1.61681585e-02,  7.70646613e-03,
        -4.57886271e-02,  3.98256592e-02,  1.20065838e-01,
        -3.71856131e-02,  5.51366806e-02, -7.27609824e-03,
        -4.79308255e-02,  1.19051725e-01,  3.00743673e-02,
         4.44826670e-02, -1.81454271e-02,  7.06868544e-02,
         2.96559036e-02,  1.13477826e-01, -1.65590383e-02,
         2.13978626e-02,  5.14382720e-02, -5.33587001e-02,
         1.14077233e-01,  6.98812120e-03,  1.05509855e-01,
         4.29480858e-02,  5.95714487e-02, -1.16192009e-02,
         4.04554680e-02,  4.96538840e-02,  2.73655672e-02,
        -1.12332460e-02, -3.96969169e-02,  9.99113992e-02,
         4.07976173e-02,  5.76487854e-02, -1.02132224e-01,
         8.52563828e-02,  7.72380605e-02,  6.16110265e-02,
         7.65107572e-02, -1.78382881e-02,  1.07518584e-01,
         8.50558653e-02,  7.11680576e-02, -8.81522447e-02,
         1.06339445e-02, -5.55460043e-02,  3.32485791e-03,
         9.17758197e-02,  3.47282216e-02,  4.40798327e-03,
        -1.46345822e-02,  4.86073270e-02, -6.66544661e-02,
         4.57179062e-02, -7.93261603e-02, -9.66113582e-02,
         5.54635609e-03,  6.50636405e-02, -9.68919471e-02,
        -5.63477539e-02, -4.58528958e-02, -9.22795087e-02,
         7.90381581e-02,  4.72933464e-02, -6.90325871e-02,
         9.10838321e-02,  7.11875409e-02,  3.78755704e-02,
        -9.44931954e-02, -9.32408497e-02,  5.75273931e-02,
         4.25946862e-02,  5.08135818e-02, -8.96678492e-02,
         3.30569246e-03, -2.17645653e-02,  1.04601227e-01,
         2.48647220e-02,  2.50878893e-02, -3.04182414e-02,
        -4.16724049e-02, -5.36637418e-02, -8.89082029e-02,
         1.07911654e-01,  1.11859150e-01,  1.61706433e-02,
         7.29005635e-02,  5.04390746e-02,  2.66321842e-02,
         1.06104970e-01,  1.09899379e-02, -9.33486875e-03,
        -7.24716783e-02, -9.73594040e-02,  3.18900645e-02,
         3.46940756e-02, -3.41435708e-02, -5.87486699e-02,
         1.87269680e-03,  8.88259709e-02,  9.07156244e-02,
         9.36118215e-02,  1.21313967e-01,  9.83563997e-03,
        -1.05670132e-01, -3.64548005e-02,  7.42672011e-02,
        -6.87646642e-02,  1.95523705e-02,  9.46327671e-02,
         1.62673481e-02, -8.98860618e-02,  8.47216249e-02,
        -4.82827425e-02,  3.79895680e-02, -2.17470787e-02,
         1.29828453e-02,  9.08268318e-02,  3.29625867e-02,
         4.40086052e-02,  1.00922130e-01,  8.39799419e-02,
         1.10080659e-01},
       {-2.67471466e-02,  7.62981102e-02,  5.88320792e-02,
        -8.83719400e-02,  7.39008412e-02,  7.16755688e-02,
        -4.29929188e-03, -9.16768238e-02,  4.79284711e-02,
        -2.83915401e-02,  6.21500574e-02,  1.05926476e-01,
         7.48794228e-02, -3.36214043e-02,  8.79760906e-02,
         6.56118095e-02, -1.33204430e-01,  8.27145725e-02,
        -2.65582390e-02, -9.88179296e-02,  9.78273107e-04,
        -1.02035692e-02,  5.67854382e-02,  4.71313596e-02,
        -3.99528891e-02,  1.05081327e-01, -9.39486846e-02,
         4.85896990e-02, -3.11838719e-03, -5.25900573e-02,
        -5.44764064e-02, -2.90466170e-03, -1.00421019e-01,
         8.27082992e-02, -4.62835729e-02, -1.06176563e-01,
        -6.55262321e-02, -8.04478824e-02,  7.90974125e-02,
        -8.76710489e-02,  9.88288447e-02,  4.81023230e-02,
        -6.81402534e-02, -3.71036679e-02, -3.78596857e-02,
        -4.86393943e-02,  5.70283681e-02,  1.98792312e-02,
         6.12180755e-02, -5.22845164e-02,  9.42836776e-02,
        -4.13900688e-02,  6.87546730e-02, -1.15204435e-02,
        -7.02236220e-02,  3.75424847e-02,  1.17905915e-01,
        -7.23032653e-02,  8.99159722e-03, -5.93286268e-02,
         7.88589418e-02,  3.77795361e-02,  9.58326384e-02,
        -8.03850219e-02,  1.03163697e-01,  2.07938720e-03,
         8.34200010e-02, -5.20501658e-02,  3.23426514e-03,
         7.62684271e-02,  1.69643294e-02, -2.37266589e-02,
         1.42192598e-02, -8.30236301e-02, -8.22432637e-02,
         7.54496306e-02,  1.13960803e-01, -8.82253051e-02,
        -3.24497465e-03,  6.70900345e-02,  2.53128689e-02,
        -9.70162079e-02, -2.61735693e-02, -9.18788016e-02,
         6.02293834e-02, -7.97242597e-02,  3.80472951e-02,
        -5.21582961e-02,  5.96654154e-02,  1.16440363e-01,
        -1.76370144e-02, -5.25702052e-02,  9.22785699e-02,
         1.39298812e-01,  6.15990832e-02,  5.49508892e-02,
         5.23062199e-02, -2.77877338e-02,  1.76158845e-02,
        -9.24746990e-02, -4.30775248e-02, -5.96697442e-02,
         1.10162914e-01,  1.07359961e-01,  1.12041466e-01,
         1.98646169e-02,  2.20801756e-02, -6.92130476e-02,
        -7.70244077e-02,  4.31355052e-02, -4.16557901e-02,
         1.55962529e-02,  9.03314948e-02,  8.84486437e-02,
        -8.17497820e-02,  3.97684351e-02, -5.43078817e-02,
         2.65189651e-02,  7.40348622e-02, -6.69612437e-02,
        -1.47749437e-02, -5.01936451e-02,  3.51883098e-02,
         1.02905273e-01,  7.60636032e-02, -7.61206076e-02,
        -4.83369455e-03,  2.48623770e-02,  1.21169180e-01,
         8.97405222e-02, -4.00484279e-02, -6.32449090e-02,
         1.13969818e-02, -2.65958672e-03,  7.41254985e-02,
        -5.89778014e-02,  1.08339839e-01,  7.38862529e-02,
         2.15621777e-02,  7.03597665e-02,  1.44560069e-01,
         1.12898491e-01,  1.54936183e-02, -1.41578785e-03,
         8.00817609e-02,  5.46933562e-02, -8.25940296e-02,
         2.03931089e-02,  1.84703134e-02,  8.14096406e-02,
         1.01758935e-01,  1.34301394e-01,  8.39657187e-02,
        -4.84311506e-02,  3.03259026e-02, -6.14866987e-02,
         6.32373244e-02,  4.53070626e-02,  1.04873531e-01,
        -1.62961278e-02, -5.81179485e-02,  1.16297327e-01,
         1.00157782e-01, -1.69488993e-02,  1.28173143e-01,
         2.87163146e-02, -2.42274236e-02,  4.59329784e-03,
         4.11227494e-02,  8.89639780e-02, -6.30522612e-03,
         8.20543095e-02,  2.94533297e-02, -6.87032752e-03,
         2.63991281e-02,  1.32250652e-01, -5.57518676e-02,
        -7.70369843e-02,  4.98975180e-02,  1.14541888e-01,
         1.38191923e-01,  7.17766732e-02,  6.61247224e-02,
         1.34665221e-01, -8.01030248e-02,  1.28956228e-01,
        -7.56372437e-02,  7.32644722e-02, -2.60622948e-02,
         1.09005593e-01,  1.27247244e-01, -3.47509943e-02,
        -2.35938765e-02,  6.66797534e-02, -5.66933639e-02,
         1.35441214e-01,  4.23806906e-02,  1.13663822e-01,
        -2.64968425e-02, -8.94053206e-02, -6.04270771e-02,
        -6.17903247e-02, -1.40412822e-02, -5.35578206e-02,
        -4.28504199e-02,  1.12965725e-01,  1.45497127e-02,
        -4.90421131e-02,  1.35660395e-01, -6.11521713e-02,
        -7.01913163e-02,  8.76156017e-02, -7.81151373e-03,
         6.97075948e-02, -5.15039172e-03,  4.51813191e-02,
         5.51387891e-02,  1.22160085e-01,  6.41187141e-03,
        -1.49098076e-02, -8.80065039e-02, -7.74758384e-02,
        -5.93312755e-02,  1.02372974e-01,  9.94437709e-02,
         2.15431657e-02, -5.62750436e-02, -7.57706538e-02,
         7.54813403e-02,  2.30131168e-02,  1.06011949e-01,
        -1.89194884e-02, -9.90352184e-02,  1.01131082e-01,
        -4.21999395e-02,  1.25341147e-01,  8.14436153e-02,
        -5.78338876e-02, -3.31217274e-02, -8.20337608e-02,
         7.19803795e-02,  1.06646679e-01,  1.04925018e-02,
         4.12164852e-02, -3.09271086e-02, -2.19688658e-02,
         5.74447215e-02,  3.19316238e-02, -1.06105022e-01,
        -7.48884007e-02,  6.83416724e-02,  7.27456585e-02,
         7.97710791e-02,  3.29781882e-02,  1.99559145e-02,
        -6.76036179e-02},
       { 1.27900496e-01, -4.33566310e-02,  3.66166048e-02,
        -2.99752224e-02,  4.58955728e-02, -1.02999713e-03,
        -6.26003370e-02, -5.03546707e-02,  8.57051369e-03,
         5.21457456e-02,  8.94109830e-02, -1.10578621e-02,
         1.28396675e-01,  9.22798887e-02,  3.80727798e-02,
         2.94384994e-02,  3.85047868e-02,  1.80668607e-02,
         3.55105847e-02,  9.60726812e-02,  8.10102820e-02,
         9.04476568e-02,  7.90718272e-02,  1.07376054e-01,
         1.45342723e-02,  8.81113335e-02,  8.44088122e-02,
        -1.00895227e-03,  9.67788100e-02, -8.14534128e-02,
         1.07493006e-01,  1.05057009e-01, -7.27919936e-02,
         4.86921296e-02,  3.86145972e-02,  1.57853682e-02,
         8.95875841e-02, -9.20794010e-02,  2.78660329e-04,
         7.55264908e-02, -3.28961015e-02,  1.55330449e-02,
         1.05803721e-01,  1.18373558e-01, -1.83441192e-02,
         3.30887884e-02,  1.14301130e-01, -6.86081871e-02,
         1.01521589e-01,  9.42422599e-02,  4.32499312e-02,
        -5.66592887e-02, -6.52234405e-02, -7.94239938e-02,
         1.29797056e-01,  1.00462817e-01, -7.05543384e-02,
         8.95387158e-02,  8.54817405e-02,  7.70351142e-02,
         1.11731596e-01, -5.97541779e-02, -6.54809400e-02,
         3.26657034e-02,  7.94806182e-02, -2.74304431e-02,
         1.24417447e-01, -3.97610856e-05,  4.72474284e-02,
         1.34927332e-01,  6.02155179e-02,  5.91692403e-02,
         7.41182826e-04,  9.24677402e-02,  8.23184475e-03,
        -6.89651072e-02,  1.17778622e-01,  7.83154443e-02,
         2.87421197e-02,  3.12772319e-02,  3.40040997e-02,
         1.02057911e-01,  6.00500517e-02,  6.47293553e-02,
        -9.33639146e-03, -6.07527532e-02,  2.04178877e-02,
         5.46882562e-02,  1.42836392e-01, -3.44136870e-03,
         1.13087051e-01, -7.82172009e-02,  7.04056472e-02,
         6.59254268e-02,  1.40222162e-01, -7.87345022e-02,
         1.03802577e-01,  1.15790039e-01, -2.78496481e-02,
         7.46664628e-02,  6.30957484e-02,  7.28628784e-02,
        -9.35780928e-02,  9.67411548e-02,  6.04834817e-02,
        -7.71991983e-02, -3.44224125e-02,  7.44509846e-02,
         9.49390009e-02,  1.98926814e-02,  9.29454938e-02,
        -1.01180479e-01,  8.52546468e-02,  1.27192512e-01,
        -1.77705530e-02,  8.76217112e-02,  1.18227683e-01,
         4.76257913e-02,  1.00214183e-01,  1.23154871e-01,
         5.83376409e-03,  6.31274581e-02,  8.04420337e-02,
        -2.56325006e-02, -6.74258918e-02, -6.59739599e-02,
         5.77706955e-02, -4.26559858e-02, -1.74411898e-03,
         5.21033071e-02,  6.63769171e-02,  1.22018792e-01,
         6.01630099e-02, -4.76417802e-02,  2.19298527e-03,
        -2.21571065e-02,  1.29503801e-01, -1.88305322e-02,
        -2.48743724e-02, -7.61319026e-02,  1.24290042e-01,
         8.86650756e-02, -8.39188918e-02, -6.76739216e-02,
         8.46227482e-02, -8.35676640e-02, -4.42798473e-02,
        -8.59928429e-02,  7.66493902e-02,  3.03668324e-02,
         2.26223189e-02, -7.75087718e-03,  4.89050001e-02,
        -8.22400451e-02, -9.64682102e-02, -5.40175773e-02,
         1.19141184e-01,  4.73683700e-02,  6.62651360e-02,
         1.21426500e-01,  1.73458084e-03,  1.03689827e-01,
         1.43735409e-02,  5.45039633e-03, -7.66419843e-02,
         1.05320916e-01, -3.01815495e-02,  1.15413770e-01,
        -7.73740709e-02,  5.24710193e-02, -3.80479991e-02,
        -1.42205209e-02,  9.30634290e-02, -1.03866002e-02,
         5.46701290e-02,  1.09037094e-01,  1.92294028e-02,
         2.63979156e-02,  5.99724352e-02,  3.98307741e-02,
         2.69482415e-02,  9.84500572e-02,  1.01056613e-01,
         6.90650716e-02, -3.69794182e-02, -3.68027985e-02,
         1.02186836e-01, -3.76378670e-02,  6.82118535e-02,
        -6.23972118e-02, -9.07424092e-02,  1.31516885e-02,
         3.08806938e-03, -1.01282611e-01, -9.38764066e-02,
         4.52508479e-02,  3.81194800e-02, -3.71268503e-02,
        -7.28091970e-02, -6.82970360e-02, -8.63492712e-02,
         1.25010461e-01,  1.61403194e-02,  4.96250577e-02,
         4.40145247e-02, -4.26589046e-04,  7.83826336e-02,
         4.00146889e-03,  8.79444927e-02,  8.48812386e-02,
        -8.63982886e-02, -5.61758541e-02, -1.05978750e-01,
         7.95108899e-02, -3.62728685e-02,  3.48060355e-02,
        -9.91745293e-02,  4.12304662e-02,  7.98222721e-02,
        -8.52463171e-02,  7.99856335e-02, -9.92064178e-02,
         1.08550768e-02,  1.76954679e-02,  8.22680071e-02,
        -1.50985681e-02, -8.61409232e-02, -3.67983095e-02,
         6.88664839e-02, -3.61533687e-02, -1.47868497e-02,
        -8.75385329e-02, -2.48901313e-03, -7.59046674e-02,
        -1.19751180e-02,  3.98438424e-02, -1.04363650e-01,
         9.24081802e-02, -7.15577975e-02, -4.85866480e-02,
         1.24468602e-01, -1.14677712e-01,  2.09848247e-02,
        -7.54792169e-02,  4.42113392e-02, -5.43981977e-02,
        -9.41665992e-02, -1.43496515e-02, -7.17491657e-02,
        -6.00944795e-02, -4.54103686e-02, -9.55271423e-02,
        -7.32148811e-02,  6.90798163e-02, -9.05212536e-02,
         6.73503280e-02},
       { 2.34205499e-02,  5.46563379e-02,  6.90198615e-02,
         1.28866099e-02,  7.91665614e-02,  5.16999587e-02,
         4.47253957e-02,  7.32897297e-02,  7.68706948e-02,
        -6.62419274e-02,  1.77613813e-02, -9.44911391e-02,
         1.16141094e-02,  4.82395571e-03, -2.00872906e-02,
         4.47946601e-02, -6.51359931e-02,  4.32510711e-02,
        -4.59285192e-02, -3.85862067e-02, -6.40085116e-02,
        -9.91403461e-02, -4.54612933e-02,  3.13137621e-02,
         1.23058632e-01,  2.44775377e-02,  1.24124080e-01,
         2.52819564e-02,  4.21535484e-02,  6.78869337e-02,
        -2.36104820e-02,  3.11033688e-02,  6.11529909e-02,
        -2.51903515e-02,  1.33216605e-01,  7.61520416e-02,
         1.21260189e-01,  2.34627747e-03,  7.68317059e-02,
         9.52627584e-02, -3.59548666e-02, -8.46232846e-02,
        -6.24464490e-02,  4.69273962e-02,  1.06409334e-01,
        -6.74530193e-02, -2.26412695e-02, -1.28307461e-03,
         4.02364731e-02,  9.22885761e-02,  1.39688244e-02,
         1.09367833e-01, -4.09036539e-02, -1.76323932e-02,
         9.24203470e-02,  4.76662815e-02,  3.01682055e-02,
        -6.25383109e-02,  4.12094556e-02, -1.00716971e-01,
         4.10148054e-02,  8.03636014e-02, -6.10338375e-02,
        -8.99008885e-02, -2.18223780e-02,  5.78678697e-02,
         7.40077868e-02,  9.02597457e-02,  6.86180443e-02,
        -2.97865234e-02,  6.05632924e-03,  7.18171000e-02,
         1.31000206e-01, -1.89953651e-02,  9.89700928e-02,
        -6.85507804e-03, -3.94286886e-02,  9.99191105e-02,
         8.39205682e-02, -3.76134366e-02,  2.85000596e-02,
         4.09077629e-02, -7.68107995e-02,  6.84537925e-03,
        -5.83323278e-02,  1.21572755e-01,  2.15383731e-02,
        -1.43928444e-02, -2.95783356e-02,  8.68861005e-02,
         4.78388555e-02, -7.34689683e-02,  7.91483223e-02,
        -3.93567868e-02, -4.15300950e-02,  2.25341301e-02,
         6.66272268e-02,  4.40283632e-03, -5.33120632e-02,
        -3.40632163e-02, -9.09602568e-02,  4.04378399e-02,
        -6.20658183e-03,  7.53755867e-02, -7.30294660e-02,
         1.07248291e-01,  4.65156883e-02, -5.41109778e-02,
         3.40441726e-02,  7.73809478e-02,  5.16503379e-02,
         4.29181792e-02,  1.27880692e-01, -8.83609653e-02,
        -9.15524811e-02, -4.27111126e-02,  9.64063257e-02,
         1.48228300e-03,  7.69333318e-02, -2.48057432e-02,
         1.04649007e-01,  1.06600963e-01,  1.03052415e-01,
         6.04144181e-04,  1.00398265e-01, -4.01698276e-02,
         1.24593759e-02, -5.16836829e-02, -8.58660489e-02,
        -5.13475873e-02,  1.26784965e-01,  1.06705189e-01,
        -3.67074423e-02, -7.93556347e-02, -3.02100647e-02,
        -4.77015600e-03,  7.44500160e-02, -4.76424173e-02,
         7.11868927e-02,  1.25415951e-01,  8.36784840e-02,
        -6.37593195e-02,  1.02069639e-01, -8.08464885e-02,
         3.36990915e-02,  6.26660138e-02, -3.51473354e-02,
         1.15175575e-01,  4.33991924e-02, -3.74652632e-02,
        -2.09322404e-02,  4.38627824e-02, -8.59395508e-03,
        -8.64872485e-02,  1.23298587e-02, -7.92849958e-02,
         5.64710088e-02,  8.85638148e-02,  8.86877067e-03,
         1.37285143e-01,  4.84968200e-02,  1.09611481e-01,
         1.32916749e-01,  2.62243152e-02,  8.87150019e-02,
         6.50476962e-02,  1.04223087e-01,  1.20920911e-01,
        -5.25887422e-02,  4.62017544e-02, -6.77958280e-02,
         4.70617190e-02,  5.90094589e-02,  1.17626548e-01,
         1.03290439e-01,  1.05157368e-01, -1.06204357e-02,
         2.76938118e-02, -7.58596733e-02,  1.26040891e-01,
         1.30683392e-01,  1.08452708e-01,  1.75136756e-02,
         1.13811173e-01,  1.26719117e-01,  8.95119533e-02,
         7.85927027e-02, -2.77288109e-02,  4.04091328e-02,
         1.06794894e-01,  3.10566388e-02,  1.11822754e-01,
         2.46336441e-02,  1.79224480e-02,  3.24767157e-02,
         1.99182867e-03,  3.17770354e-02,  5.68530299e-02,
         5.72337396e-02,  8.64520594e-02,  1.01761455e-02,
         1.12767600e-01,  3.56689608e-03, -5.35573289e-02,
         1.01465113e-01, -3.26612368e-02, -6.85009733e-03,
         4.54405323e-02, -2.63628494e-02,  1.30996823e-01,
         1.20898142e-01,  9.73978043e-02, -5.08795343e-02,
        -2.86710300e-02,  3.75140794e-02,  2.27060225e-02,
         9.86971781e-02,  7.47076422e-02, -6.24519847e-02,
         5.91014549e-02,  1.47647141e-02,  1.41344503e-01,
         9.50733258e-04, -6.56758621e-02,  8.44253600e-02,
         8.18491802e-02, -6.00644536e-02, -1.01899123e-02,
        -7.68408328e-02,  8.39202777e-02,  1.01623736e-01,
        -8.15483108e-02,  6.60314485e-02,  1.66542660e-02,
         7.17433393e-02,  1.00999452e-01, -1.70186386e-02,
        -6.11792766e-02,  1.14697851e-01,  9.06590745e-02,
         1.14903539e-01,  7.51448423e-02, -2.99484059e-02,
         1.17005385e-03,  8.96807835e-02,  1.09996513e-01,
        -1.29517633e-02,  1.33115157e-01,  1.05124660e-01,
         8.59920755e-02, -4.86876443e-02,  2.48690993e-02,
        -4.79320250e-02,  4.08774093e-02,  5.60982637e-02,
        -1.73132662e-02},
       { 1.04886219e-01, -1.89674143e-02,  5.05918786e-02,
        -4.26314697e-02, -5.36979809e-02, -5.01811914e-02,
         1.15188740e-01, -6.56425506e-02,  2.84685264e-03,
         8.08691382e-02,  3.39724161e-02,  1.95758250e-02,
        -9.09841526e-03,  7.55331889e-02,  9.54422951e-02,
        -9.27800015e-02,  6.62582666e-02, -6.97408319e-02,
         1.19623818e-01,  1.08260527e-01,  1.79989473e-03,
        -6.13370677e-03,  1.18101642e-01,  4.99973744e-02,
         1.17826603e-01,  5.98523207e-02,  9.96317342e-02,
        -3.47861387e-02, -2.02373061e-02,  3.54125313e-02,
         3.08339205e-02, -5.97277060e-02,  1.17892213e-01,
         3.97534929e-02,  3.85478176e-02,  1.17441379e-01,
        -6.57595173e-02,  7.81364664e-02, -2.71040816e-02,
         5.14873639e-02,  1.02681175e-01,  6.10891767e-02,
         7.81296641e-02,  5.28346859e-02,  1.57242902e-02,
        -2.14695893e-02,  1.67539772e-02, -9.15803984e-02,
        -1.36929937e-02, -3.63417752e-02,  9.58948508e-02,
         4.18135077e-02, -7.90323317e-02, -2.18102373e-02,
         1.80349555e-02,  1.12519287e-01,  8.66404772e-02,
         6.88164756e-02, -4.29440476e-02, -4.44235317e-02,
        -7.55517650e-03,  2.61382423e-02,  1.15242198e-01,
         9.77736562e-02,  5.45156226e-02, -1.61323231e-02,
         2.86321975e-02,  1.17118947e-01, -1.07710257e-01,
        -4.64078784e-02, -7.94690400e-02, -2.70674527e-02,
         6.56991675e-02,  9.88326743e-02,  1.13844305e-01,
        -8.37198421e-02, -4.08878922e-02, -6.43519983e-02,
         3.82620096e-03, -3.49749960e-02,  6.28364310e-02,
        -2.68112905e-02,  4.38262634e-02,  8.44645500e-02,
         7.09836036e-02,  9.42193940e-02, -3.84051912e-02,
        -3.23335379e-02, -8.43660161e-02, -6.20217919e-02,
         7.56489113e-03, -6.97948188e-02,  1.30371645e-01,
        -4.77427728e-02,  1.29354810e-02,  2.39894949e-02,
        -3.98201942e-02, -6.25032708e-02,  9.49882418e-02,
        -9.48044285e-02, -6.53776452e-02,  1.72294453e-02,
         1.04814962e-01, -2.50430405e-03, -9.59160551e-02,
         1.28074542e-01,  6.81277066e-02,  2.58103926e-02,
        -2.51891371e-02, -5.87452156e-03,  1.20172776e-01,
         3.90981957e-02, -2.88724098e-02,  7.22284615e-02,
        -7.87808448e-02, -4.25919332e-02,  7.09853619e-02,
        -9.41151083e-02, -8.04638043e-02, -7.00657591e-02,
        -8.82753637e-03,  7.60669708e-02, -3.96014266e-02,
         5.52959926e-02,  8.57666805e-02,  2.82192212e-02,
        -2.00156327e-02,  1.02730811e-01, -9.73026678e-02,
        -3.54617015e-02, -8.63028318e-02,  1.18595541e-01,
         1.27957314e-01,  9.61958393e-02,  9.34537575e-02,
        -5.28652966e-02,  9.09549296e-02, -2.78202631e-02,
         4.38696370e-02, -6.05143756e-02,  3.05234976e-02,
        -2.52002873e-03, -9.86881554e-02,  6.52637333e-02,
         8.58181491e-02, -1.31339720e-02,  9.33480188e-02,
         5.44214398e-02, -6.12671226e-02,  1.02425842e-02,
        -6.12357929e-02, -4.16671261e-02, -6.76227212e-02,
         3.32494304e-02,  9.20439065e-02,  4.35653478e-02,
         6.97303414e-02,  1.12962192e-02,  1.16349518e-01,
        -6.29281402e-02, -4.12555523e-02,  7.83973634e-02,
         9.09031257e-02, -7.78261898e-03,  4.31455672e-02,
         5.00957109e-02,  1.06525458e-01,  6.27107397e-02,
         3.91992889e-02,  5.71029708e-02,  2.74605565e-02,
         4.05068547e-02, -1.37335612e-02,  1.28932863e-01,
         6.44874051e-02,  1.16339162e-01,  4.39115204e-02,
         6.83118626e-02, -6.79348409e-02,  9.30517465e-02,
        -7.52092749e-02, -4.79040928e-02,  7.08013400e-02,
         5.93862683e-02, -1.76936984e-02,  5.64787947e-02,
         7.02493340e-02, -6.01748526e-02,  6.38012290e-02,
         2.13962048e-02,  1.07526526e-01, -5.23299947e-02,
        -7.25618899e-02,  9.87001508e-02, -7.78356120e-02,
        -8.63213018e-02,  2.48393025e-02, -3.99025343e-02,
        -5.02535067e-02, -2.51623131e-02, -9.03024524e-02,
         5.76213934e-02,  6.55107573e-02, -8.56939927e-02,
         1.32223338e-01, -2.75508910e-02,  4.73312214e-02,
         6.68345243e-02, -7.73634855e-03,  1.43177863e-02,
         6.37261420e-02, -7.70179778e-02, -3.96278054e-02,
        -5.08630536e-02,  4.67735082e-02,  4.24412601e-02,
         3.81525606e-03,  4.01010588e-02, -6.79274127e-02,
         2.36729346e-03,  2.11306773e-02, -3.13564693e-03,
         1.20869696e-01, -4.75288443e-02, -7.24699497e-02,
        -5.79234026e-02, -2.65919343e-02, -6.10810071e-02,
        -6.11980408e-02, -1.71956476e-02, -8.92398357e-02,
         1.22601446e-02,  7.09076524e-02,  2.30666064e-02,
         1.90361850e-02, -3.36084589e-02,  8.04890618e-02,
         3.39351632e-02,  1.24012426e-01,  1.24817386e-01,
         8.12511519e-02, -5.64444736e-02,  2.71582454e-02,
        -5.92278615e-02,  2.98187379e-02, -5.43905422e-02,
         1.15726411e-01, -8.94297138e-02,  4.28817905e-02,
         1.05578922e-01,  6.74160644e-02,  1.13911957e-01,
         1.12808041e-01, -4.97880802e-02, -7.82084316e-02,
        -7.01006800e-02},
       { 4.95052189e-02, -2.47252975e-02, -4.51647416e-02,
         1.25742212e-01, -4.67039198e-02, -4.93574403e-02,
         1.14247553e-01, -1.04531631e-01, -5.64042553e-02,
         6.98980317e-02,  8.72195640e-04,  1.13267623e-01,
        -1.87589470e-02,  2.31077671e-02,  6.35606050e-02,
         1.27704125e-02, -7.54746646e-02, -1.01042256e-01,
         3.04020792e-02, -1.12998383e-02,  1.18167304e-01,
         1.11050464e-01, -4.98427404e-03, -9.19736177e-02,
        -7.96041116e-02, -7.85967987e-03, -1.49515597e-02,
        -5.38527668e-02, -1.29913054e-02, -2.55232714e-02,
         9.13421437e-03,  6.38234094e-02, -4.81085405e-02,
        -1.01602495e-01,  6.48466051e-02,  7.33226165e-02,
        -6.85268790e-02, -9.19667333e-02, -7.25480840e-02,
         1.14983274e-03,  9.71762761e-02,  4.27027680e-02,
         8.21316801e-03, -2.84271594e-02, -6.87649995e-02,
        -6.72807544e-02,  1.16723359e-01,  7.53918216e-02,
        -8.47199559e-02,  1.25546241e-02,  1.73641853e-02,
         1.93080716e-02, -5.51249832e-02,  4.70732190e-02,
        -2.14685500e-02, -3.01534794e-02,  3.05059226e-03,
        -8.33031982e-02, -5.68023957e-02, -1.11989742e-02,
         1.13969639e-01,  9.84908715e-02, -3.68628241e-02,
         1.04898818e-01, -2.09163339e-03,  1.06804542e-01,
        -2.87793856e-02, -1.11135699e-01, -9.12801828e-03,
        -3.90660875e-02,  1.04731545e-01,  4.50479100e-03,
         7.86159560e-02,  6.00571670e-02,  6.22295067e-02,
        -1.46138985e-02, -8.95221904e-02, -5.85466158e-04,
        -3.27072181e-02, -7.77495578e-02, -7.65729919e-02,
         7.90231153e-02,  2.39711758e-02,  2.60769743e-02,
        -8.78227353e-02,  4.81832586e-02, -5.76615036e-02,
        -6.86454074e-03,  8.45147967e-02,  4.10366133e-02,
         9.34603736e-02, -5.99928759e-02, -9.32328589e-03,
        -1.91058200e-02,  4.43253368e-02,  7.31817111e-02,
         4.33767028e-02, -4.01713885e-02,  7.56190047e-02,
         1.17155820e-01,  7.20563307e-02, -1.02520317e-01,
        -2.99112704e-02,  7.99128264e-02, -4.34337482e-02,
        -4.88105193e-02, -9.79724675e-02,  1.04517445e-01,
        -2.56176889e-02,  2.38793455e-02,  3.15802060e-02,
         1.15001917e-01, -4.33558747e-02, -5.84501736e-02,
         1.15747787e-01, -9.17841792e-02, -4.75968514e-03,
        -7.70892650e-02, -7.18129519e-03,  4.27668691e-02,
         8.04478154e-02,  3.30936126e-02, -4.26183688e-03,
        -1.21957920e-02, -2.58884598e-02,  5.11309467e-02,
        -9.64162499e-02, -8.97158682e-03, -2.41103466e-03,
        -5.21705076e-02, -3.22046615e-02, -8.05364847e-02,
         5.43339886e-02,  4.09754068e-02, -2.29121372e-02,
        -4.55076210e-02, -7.29926378e-02, -1.20688612e-02,
         4.21766518e-03,  1.63753033e-02,  1.27825573e-01,
         1.64396241e-02, -8.60230699e-02,  1.81063507e-02,
         7.23516047e-02,  8.79906341e-02, -9.72578228e-02,
         1.18293792e-01,  5.66983074e-02,  8.00952688e-02,
        -8.45986186e-04, -7.55648315e-02,  7.09902421e-02,
        -5.80738410e-02,  3.41574065e-02,  2.81685358e-03,
         6.05818070e-02,  1.02369497e-02, -4.40701656e-02,
         1.12621859e-01,  1.24159701e-01,  4.73416112e-02,
         2.06517745e-02,  5.44200465e-02, -1.02867289e-02,
        -7.94228613e-02, -4.19677272e-02, -1.16781779e-02,
        -3.80173698e-02, -3.27168331e-02, -8.47978666e-02,
         6.81571383e-03, -4.60783653e-02, -9.30505395e-02,
         8.60992149e-02, -2.87775211e-02, -3.03574074e-02,
         8.29555914e-02,  2.36416305e-03, -3.68694216e-02,
         9.14123431e-02,  2.48531159e-02,  2.42402405e-02,
         8.54758024e-02, -8.29709023e-02, -5.64990751e-02,
        -8.01782086e-02,  7.47923106e-02,  8.78575593e-02,
        -4.22289781e-02,  8.73241201e-03, -7.78621063e-02,
        -6.35115104e-03,  1.39903715e-02,  3.08747534e-02,
        -4.80658785e-02,  1.20813221e-01, -1.62020940e-02,
        -4.80184592e-02,  8.98573268e-03,  5.35601825e-02,
         1.07710240e-02,  6.91008270e-02,  1.37010634e-01,
        -6.60217628e-02,  3.74312364e-02,  9.98857245e-03,
         2.57488377e-02, -4.87556942e-02, -6.30733371e-02,
        -1.32032270e-02,  7.86388293e-02,  3.00002769e-02,
         1.27081499e-01,  5.41524729e-03, -8.97954032e-02,
         4.57162634e-02,  7.41580129e-02,  4.65379618e-02,
         3.89094837e-02,  1.09680586e-01,  5.74476458e-02,
        -6.42517731e-02, -3.42302173e-02,  1.15306839e-01,
        -8.55504349e-02,  9.50227082e-02, -4.84497994e-02,
        -1.14720494e-01, -7.70258829e-02, -2.46149357e-02,
        -5.75331450e-02,  8.60208571e-02,  9.82300490e-02,
         9.98583138e-02,  2.17942707e-02, -1.02851108e-01,
        -4.27608676e-02, -9.74843651e-02, -4.47340868e-02,
         5.54422028e-02,  1.82804894e-02, -1.04218706e-01,
        -3.94951142e-02,  9.30878371e-02, -2.37801168e-02,
         1.01836264e-01,  7.71979019e-02, -9.60934237e-02,
        -7.61344051e-03,  8.93183500e-02,  7.97838122e-02,
        -4.83427048e-02,  1.01180226e-01,  1.23512797e-01,
         8.93738493e-02},
       { 7.65188485e-02, -2.60832906e-02,  6.69457540e-02,
        -3.67666818e-02, -6.23668022e-02,  1.20492592e-01,
         8.40329006e-02,  6.71041012e-02, -3.76791283e-02,
         2.77059134e-02, -5.46335466e-02,  1.93526335e-02,
         1.27157241e-01,  1.93412919e-02, -8.05994496e-02,
         1.01820737e-01,  4.11516763e-02,  1.11389644e-01,
         3.46301273e-02,  3.40620130e-02, -2.31194235e-02,
         1.23484798e-01,  5.95638119e-02, -1.30870997e-03,
         5.56056090e-02,  3.96261225e-03, -8.66651759e-02,
        -8.36701542e-02,  4.77261730e-02,  3.51328030e-02,
        -5.94526529e-02,  2.24280469e-02, -5.81970904e-04,
        -1.03786560e-02,  5.33846132e-02,  5.31249642e-02,
        -4.95316554e-03,  1.25358000e-01,  4.73774830e-03,
        -8.35816786e-02,  6.78195059e-02, -8.40295702e-02,
         4.57340777e-02, -2.73894984e-02,  2.34429426e-02,
        -7.08376709e-03, -8.40794221e-02,  8.60040337e-02,
         7.97321275e-02,  6.52202815e-02, -8.98714289e-02,
         1.13477699e-01,  7.99880400e-02,  4.22064289e-02,
         8.26537758e-02, -6.15532026e-02, -3.71563844e-02,
         1.11317582e-01, -2.27461644e-02,  8.67899731e-02,
        -2.40865145e-02,  2.29506809e-02,  3.34043754e-03,
        -8.80621932e-03,  8.49924833e-02, -7.28266686e-02,
        -8.45765024e-02, -4.43528779e-02,  3.89400274e-02,
         6.46541361e-03, -8.27004835e-02,  4.44829091e-02,
         4.96858731e-02,  3.60306799e-02,  7.83625469e-02,
        -8.56082365e-02,  1.04405709e-01,  3.97245511e-02,
         1.01432800e-01,  3.08114681e-02,  5.14022298e-02,
         1.18806265e-01, -4.65795659e-02,  5.92506975e-02,
        -7.99199194e-02,  2.52784789e-02, -1.26047302e-02,
         7.20819160e-02, -9.26609244e-03,  3.48567143e-02,
        -2.26171408e-03,  9.30283293e-02,  1.04635812e-01,
         6.08123243e-02,  2.34838407e-02,  7.91054666e-02,
        -7.43612368e-03,  1.39646707e-02,  7.65332505e-02,
         2.95600537e-02,  8.37410614e-02,  1.04326889e-01,
        -9.23745483e-02, -3.33145037e-02, -1.03225568e-02,
         5.82842641e-02, -8.92516598e-02,  9.87984985e-02,
        -2.99525075e-02, -2.31443401e-02,  6.50221333e-02,
        -7.76853785e-02,  3.27694900e-02,  3.51186171e-02,
         1.12322122e-01,  1.56883635e-02, -9.21114385e-02,
         3.21633257e-02,  1.11520030e-01,  1.03217825e-01,
        -6.41620811e-03,  4.94538136e-02, -8.32182989e-02,
         9.70334187e-02,  3.82013321e-02, -4.74550808e-03,
        -7.36321732e-02, -8.20129439e-02,  1.34322330e-01,
        -6.45761266e-02, -7.99907446e-02, -7.07002310e-03,
        -8.28376040e-02,  6.18389472e-02,  1.20522045e-01,
        -2.86613666e-02, -1.82332620e-02, -8.82023573e-02,
         3.80370431e-02,  1.48131708e-02, -9.60805081e-03,
        -5.46401665e-02,  7.08456524e-03,  5.44025488e-02,
         1.22681096e-01,  9.93507653e-02, -7.59999976e-02,
         8.41963738e-02,  7.78187290e-02,  1.41475815e-02,
         4.92708944e-02,  1.15746865e-02,  2.46974584e-02,
         2.80260388e-02, -4.24089134e-02,  3.51701453e-02,
         1.12124167e-01, -3.13325822e-02,  7.89230093e-02,
         7.45727047e-02,  4.21515852e-02,  2.50642262e-02,
         9.86157432e-02,  1.08589113e-01, -2.61108018e-02,
         3.77884582e-02,  3.16105224e-03, -4.29130532e-03,
         4.80326265e-02,  2.61569191e-02,  7.06787780e-02,
        -3.64631861e-02, -5.04218638e-02, -2.34133117e-02,
         3.87324467e-02,  1.13462821e-01, -4.34810035e-02,
        -3.05688456e-02,  4.90453877e-02,  1.82847530e-02,
         3.37119587e-02,  5.30187935e-02,  4.16951925e-02,
         9.12898034e-02, -1.22606363e-02,  1.18107297e-01,
         1.21687517e-01,  1.29304513e-01, -9.89012569e-02,
         1.30234256e-01, -1.69978142e-02,  3.99361514e-02,
         5.11584152e-03, -2.77494546e-02,  2.80973315e-02,
        -7.95293748e-02,  1.17071144e-01, -7.02574430e-03,
        -4.22222391e-02,  3.21449302e-02, -3.96729596e-02,
         1.02794357e-01,  2.57505644e-02,  2.29527149e-02,
         7.19224289e-02, -3.76302958e-03,  1.11146159e-01,
        -1.19310766e-02,  2.25130804e-02, -1.65078975e-02,
         3.71433273e-02, -7.47010931e-02,  1.00372165e-01,
         1.31182626e-01, -3.39818597e-02,  3.13134445e-03,
        -5.39294407e-02, -4.61206660e-02, -2.33293511e-02,
         7.70153925e-02,  9.27264541e-02, -5.62406480e-02,
         9.45141446e-03,  1.65075120e-02,  1.47619462e-02,
         3.32268607e-03,  7.38744587e-02, -9.10144597e-02,
         2.66725477e-02, -2.06245352e-02, -5.13356254e-02,
         5.34935668e-02,  2.64434349e-02, -1.18616223e-02,
        -9.10258740e-02, -7.03688990e-03, -5.83461598e-02,
         1.12138897e-01,  6.40324727e-02, -4.46698032e-02,
         1.01469196e-01,  1.27968460e-01,  1.05937041e-01,
        -4.06042635e-02,  6.83710054e-02, -6.38887212e-02,
        -8.03926587e-03, -6.52333051e-02,  8.88111666e-02,
        -3.21098194e-02, -5.78521863e-02,  1.13263443e-01,
         7.43450597e-02, -4.48570866e-03, -7.13488162e-02,
         7.97255430e-03},
       { 4.91981842e-02, -7.09930435e-02,  8.03419913e-04,
        -3.50332484e-02,  3.83173898e-02,  1.10060126e-01,
         8.87189806e-02, -6.24282323e-02,  1.27081916e-01,
        -8.30604956e-02, -3.94516550e-02,  2.05485746e-02,
        -2.96684913e-02,  1.15436114e-01, -7.11721480e-02,
         5.65563031e-02, -8.04046839e-02,  1.19930699e-01,
        -7.19613358e-02,  1.28923550e-01, -1.98544730e-02,
         1.23679191e-02,  1.51729453e-02,  8.48724097e-02,
         1.14118271e-01,  1.13815792e-01,  1.28962532e-01,
         1.21699795e-02,  4.83689718e-02,  8.92449096e-02,
         1.03254884e-01, -2.00812630e-02,  1.01145469e-01,
        -1.66528916e-04, -5.06647564e-02, -9.79476869e-02,
        -4.60260101e-02,  1.21431731e-01,  1.05685480e-01,
         1.14178330e-01, -6.01110980e-02,  5.41576359e-04,
         8.22275057e-02, -3.59231122e-02, -6.18704334e-02,
         4.87506902e-03,  5.60539365e-02,  6.15100376e-02,
        -6.14066757e-02, -7.94929937e-02,  7.57866204e-02,
        -2.78461538e-02, -1.95017010e-02, -4.77733538e-02,
        -2.37299986e-02,  2.78108176e-02,  8.10850710e-02,
         9.85909775e-02, -7.83316642e-02,  4.98689823e-02,
        -1.70107689e-02,  4.60680109e-03,  9.63792130e-02,
         1.06848508e-01,  1.63798202e-02,  1.01034164e-01,
        -6.47955462e-02,  5.74611537e-02, -9.04406905e-02,
        -3.56110334e-02,  1.06614642e-01, -5.70747778e-02,
         7.39928260e-02, -9.25239474e-02, -3.56219374e-02,
        -5.68562113e-02,  5.74232452e-03,  5.22044674e-02,
         1.03519782e-01, -1.12958520e-03,  1.02291763e-01,
        -1.39002902e-02, -2.93461923e-02,  1.32453479e-02,
         6.29656366e-04,  9.60226804e-02,  4.31237221e-02,
        -5.33836372e-02,  1.24462120e-01,  2.50096265e-02,
        -2.33562607e-02,  9.39588100e-02,  1.00326404e-01,
         8.10218900e-02, -4.58014086e-02,  8.24091733e-02,
        -1.10142149e-01,  3.40411365e-02,  1.38529781e-02,
         1.21109784e-02, -5.62220886e-02, -7.84132704e-02,
         6.14209622e-02,  1.73388142e-02,  1.76986717e-02,
        -9.15449262e-02,  2.50471085e-02,  3.07620615e-02,
         3.03147342e-02,  8.96835402e-02, -9.31238681e-02,
         1.14886455e-01, -1.04565248e-02,  1.80901904e-02,
        -1.01967109e-02,  6.76322263e-03,  5.30303009e-02,
        -5.28988987e-02,  2.52549946e-02, -1.15488030e-01,
         3.33587900e-02, -8.98076221e-02,  4.71003279e-02,
         8.08715355e-03,  5.31325713e-02, -1.14686089e-02,
         4.77998750e-03,  4.18753959e-02,  3.21548572e-03,
        -9.61638615e-02,  2.88445298e-02,  5.11022471e-02,
         2.18811613e-02,  9.42792445e-02, -8.23659450e-02,
         9.98087227e-02, -9.60136950e-02, -3.74638475e-02,
         6.65298477e-02,  6.38896897e-02,  3.23089324e-02,
         7.03051016e-02, -5.79786450e-02, -3.91971581e-02,
        -9.45982337e-03,  4.61556017e-03,  7.86602497e-02,
        -9.74233821e-02,  9.08548683e-02, -2.32631080e-02,
        -1.14988880e-02, -1.18390672e-01, -5.14632016e-02,
        -8.28705803e-02, -2.63881125e-02,  1.14755400e-01,
         6.16047233e-02,  7.38736168e-02, -1.32103339e-02,
        -6.77754506e-02, -9.46668908e-03,  4.06727493e-02,
         5.40135093e-02,  1.23210087e-01, -6.94223959e-03,
         5.00281788e-02, -2.43959967e-02,  2.82222182e-02,
        -2.12570210e-03, -8.08201879e-02, -6.30394742e-02,
         4.10472527e-02,  3.47753875e-02, -1.36100426e-02,
        -1.06681287e-01,  1.66621003e-02, -3.24629284e-02,
        -8.62513930e-02,  1.56660285e-02, -9.71550643e-02,
        -4.37796339e-02, -5.00407629e-03,  1.97110865e-02,
        -6.88015744e-02,  8.42621550e-02, -9.14338753e-02,
         8.02177414e-02,  4.42230850e-02,  3.27932388e-02,
        -8.95924643e-02, -1.10592701e-01, -3.35143209e-02,
         8.89089033e-02,  6.48246780e-02, -6.90852432e-03,
        -1.78791359e-02,  5.19099683e-02,  6.01102738e-03,
         4.17462103e-02,  3.83779705e-02,  1.04984105e-01,
         1.09087937e-01,  1.91571265e-02, -2.72000721e-03,
        -3.12256943e-02, -9.91457850e-02,  1.00385621e-01,
         6.14505149e-02, -4.43497524e-02, -3.01483516e-02,
